EXPLAINED_VARIANCE,LNR,AKT_DAT_KL,ALTER_HH,ALTERSKATEGORIE_FEIN,ANZ_HAUSHALTE_AKTIV,ANZ_HH_TITEL,ANZ_KINDER,ANZ_PERSONEN,ANZ_STATISTISCHE_HAUSHALTE,ANZ_TITEL,BALLRAUM,CAMEO_INTL_2015,CJT_GESAMTTYP,CJT_KATALOGNUTZER,CJT_TYP_1,CJT_TYP_2,CJT_TYP_3,CJT_TYP_4,CJT_TYP_5,CJT_TYP_6,D19_GESAMT_OFFLINE_DATUM,D19_KONSUMTYP_MAX,D19_SOZIALES,D19_TELKO_ONLINE_QUOTE_12,D19_VERSI_DATUM,D19_VERSI_OFFLINE_DATUM,D19_VERSI_ONLINE_DATUM,D19_VERSI_ONLINE_QUOTE_12,DSL_FLAG,EINGEZOGENAM_HH_JAHR,EWDICHTE,FINANZ_ANLEGER,FINANZ_HAUSBAUER,FINANZ_MINIMALIST,FINANZ_SPARER,FINANZ_UNAUFFAELLIGER,FINANZ_VORSORGER,FINANZTYP,FIRMENDICHTE,GEBAEUDETYP,GEBAEUDETYP_RASTER,GEMEINDETYP,GREEN_AVANTGARDE,HH_DELTA_FLAG,HH_EINKOMMEN_SCORE,INNENSTADT,KBA05_ALTER1,KBA05_ALTER2,KBA05_ALTER3,KBA05_ALTER4,KBA05_ANHANG,KBA05_ANTG1,KBA05_ANTG2,KBA05_ANTG3,KBA05_ANTG4,KBA05_AUTOQUOT,KBA05_CCM1,KBA05_CCM2,KBA05_CCM3,KBA05_CCM4,KBA05_DIESEL,KBA05_FRAU,KBA05_GBZ,KBA05_HERST1,KBA05_HERST2,KBA05_HERST3,KBA05_HERST4,KBA05_HERST5,KBA05_HERSTTEMP,KBA05_KRSAQUOT,KBA05_KRSHERST1,KBA05_KRSHERST2,KBA05_KRSHERST3,KBA05_KRSKLEIN,KBA05_KRSOBER,KBA05_KRSVAN,KBA05_KRSZUL,KBA05_KW1,KBA05_KW2,KBA05_KW3,KBA05_MAXAH,KBA05_MAXBJ,KBA05_MAXSEG,KBA05_MAXVORB,KBA05_MOD1,KBA05_MOD2,KBA05_MOD3,KBA05_MOD4,KBA05_MOD8,KBA05_MODTEMP,KBA05_MOTOR,KBA05_MOTRAD,KBA05_SEG1,KBA05_SEG10,KBA05_SEG2,KBA05_SEG3,KBA05_SEG4,KBA05_SEG5,KBA05_SEG6,KBA05_SEG7,KBA05_SEG8,KBA05_SEG9,KBA05_VORB0,KBA05_VORB1,KBA05_VORB2,KBA05_ZUL1,KBA05_ZUL2,KBA05_ZUL3,KBA05_ZUL4,KBA13_ALTERHALTER_30,KBA13_ALTERHALTER_45,KBA13_ALTERHALTER_60,KBA13_ALTERHALTER_61,KBA13_ANTG1,KBA13_ANTG2,KBA13_ANTG3,KBA13_ANTG4,KBA13_ANZAHL_PKW,KBA13_AUDI,KBA13_AUTOQUOTE,KBA13_BAUMAX,KBA13_BJ_1999,KBA13_BJ_2000,KBA13_BJ_2004,KBA13_BJ_2006,KBA13_BJ_2008,KBA13_BJ_2009,KBA13_BMW,KBA13_CCM_0_1400,KBA13_CCM_1000,KBA13_CCM_1200,KBA13_CCM_1400,KBA13_CCM_1401_2500,KBA13_CCM_1500,KBA13_CCM_1600,KBA13_CCM_1800,KBA13_CCM_2000,KBA13_CCM_2500,KBA13_CCM_2501,KBA13_CCM_3000,KBA13_CCM_3001,KBA13_FAB_ASIEN,KBA13_FAB_SONSTIGE,KBA13_FIAT,KBA13_FORD,KBA13_GBZ,KBA13_HALTER_20,KBA13_HALTER_25,KBA13_HALTER_30,KBA13_HALTER_35,KBA13_HALTER_40,KBA13_HALTER_45,KBA13_HALTER_50,KBA13_HALTER_55,KBA13_HALTER_60,KBA13_HALTER_65,KBA13_HALTER_66,KBA13_HERST_ASIEN,KBA13_HERST_AUDI_VW,KBA13_HERST_BMW_BENZ,KBA13_HERST_EUROPA,KBA13_HERST_FORD_OPEL,KBA13_HERST_SONST,KBA13_HHZ,KBA13_KMH_0_140,KBA13_KMH_110,KBA13_KMH_140,KBA13_KMH_140_210,KBA13_KMH_180,KBA13_KMH_210,KBA13_KMH_211,KBA13_KMH_250,KBA13_KMH_251,KBA13_KRSAQUOT,KBA13_KRSHERST_AUDI_VW,KBA13_KRSHERST_BMW_BENZ,KBA13_KRSHERST_FORD_OPEL,KBA13_KRSSEG_KLEIN,KBA13_KRSSEG_OBER,KBA13_KRSSEG_VAN,KBA13_KRSZUL_NEU,KBA13_KW_0_60,KBA13_KW_110,KBA13_KW_120,KBA13_KW_121,KBA13_KW_30,KBA13_KW_40,KBA13_KW_50,KBA13_KW_60,KBA13_KW_61_120,KBA13_KW_70,KBA13_KW_80,KBA13_KW_90,KBA13_MAZDA,KBA13_MERCEDES,KBA13_MOTOR,KBA13_NISSAN,KBA13_OPEL,KBA13_PEUGEOT,KBA13_RENAULT,KBA13_SEG_GELAENDEWAGEN,KBA13_SEG_GROSSRAUMVANS,KBA13_SEG_KLEINST,KBA13_SEG_KLEINWAGEN,KBA13_SEG_KOMPAKTKLASSE,KBA13_SEG_MINIVANS,KBA13_SEG_MINIWAGEN,KBA13_SEG_MITTELKLASSE,KBA13_SEG_OBEREMITTELKLASSE,KBA13_SEG_OBERKLASSE,KBA13_SEG_SONSTIGE,KBA13_SEG_SPORTWAGEN,KBA13_SEG_UTILITIES,KBA13_SEG_VAN,KBA13_SEG_WOHNMOBILE,KBA13_SITZE_4,KBA13_SITZE_5,KBA13_SITZE_6,KBA13_TOYOTA,KBA13_VORB_0,KBA13_VORB_1,KBA13_VORB_1_2,KBA13_VORB_2,KBA13_VORB_3,KBA13_VW,KKK,KOMBIALTER,KONSUMNAEHE,KONSUMZELLE,MIN_GEBAEUDEJAHR,MOBI_RASTER,MOBI_REGIO,ONLINE_AFFINITAET,ORTSGR_KLS9,OST_WEST_KZ,PLZ8_ANTG1,PLZ8_ANTG2,PLZ8_ANTG3,PLZ8_ANTG4,PLZ8_BAUMAX,PLZ8_GBZ,PLZ8_HHZ,PRAEGENDE_JUGENDJAHRE,REGIOTYP,RELAT_AB,RT_KEIN_ANREIZ,RT_SCHNAEPPCHEN,RT_UEBERGROESSE,SEMIO_DOM,SEMIO_ERL,SEMIO_FAM,SEMIO_KAEM,SEMIO_KRIT,SEMIO_KULT,SEMIO_LUST,SEMIO_MAT,SEMIO_PFLICHT,SEMIO_RAT,SEMIO_REL,SEMIO_SOZ,SEMIO_TRADV,SEMIO_VERT,SHOPPER_TYP,SOHO_KZ,STRUKTURTYP,UMFELD_ALT,UMFELD_JUNG,UNGLEICHENN_FLAG,VERDICHTUNGSRAUM,VERS_TYP,VHA,VHN,VK_DHT4A,VK_DISTANZ,VK_ZG11,W_KEIT_KIND_HH,WOHNDAUER_2008,WOHNLAGE,ANREDE_KZ,ALTERSKATEGORIE_GROB,EINGEFUEGT_AM_Year,EINGEFUEGT_AM_Month,EINGEFUEGT_AM_Day,ARBEIT_1.0,ARBEIT_2.0,ARBEIT_3.0,ARBEIT_4.0,ARBEIT_5.0,ARBEIT_9.0,D19_KONSUMTYP_1.0,D19_KONSUMTYP_2.0,D19_KONSUMTYP_3.0,D19_KONSUMTYP_4.0,D19_KONSUMTYP_5.0,D19_KONSUMTYP_6.0,D19_KONSUMTYP_9.0,GFK_URLAUBERTYP_1.0,GFK_URLAUBERTYP_2.0,GFK_URLAUBERTYP_3.0,GFK_URLAUBERTYP_4.0,GFK_URLAUBERTYP_5.0,GFK_URLAUBERTYP_6.0,GFK_URLAUBERTYP_7.0,GFK_URLAUBERTYP_8.0,GFK_URLAUBERTYP_9.0,GFK_URLAUBERTYP_10.0,GFK_URLAUBERTYP_11.0,GFK_URLAUBERTYP_12.0,HEALTH_TYP_1.0,HEALTH_TYP_2.0,HEALTH_TYP_3.0,KBA05_MAXHERST_1.0,KBA05_MAXHERST_2.0,KBA05_MAXHERST_3.0,KBA05_MAXHERST_4.0,KBA05_MAXHERST_5.0,LP_FAMILIE_GROB_0.0,LP_FAMILIE_GROB_1.0,LP_FAMILIE_GROB_2.0,LP_FAMILIE_GROB_3.0,LP_FAMILIE_GROB_4.0,LP_FAMILIE_GROB_5.0,LP_STATUS_GROB_1.0,LP_STATUS_GROB_2.0,LP_STATUS_GROB_3.0,LP_STATUS_GROB_4.0,LP_STATUS_GROB_5.0,LP_LEBENSPHASE_GROB_0.0,LP_LEBENSPHASE_GROB_1.0,LP_LEBENSPHASE_GROB_2.0,LP_LEBENSPHASE_GROB_3.0,LP_LEBENSPHASE_GROB_4.0,LP_LEBENSPHASE_GROB_5.0,LP_LEBENSPHASE_GROB_6.0,LP_LEBENSPHASE_GROB_7.0,LP_LEBENSPHASE_GROB_8.0,LP_LEBENSPHASE_GROB_9.0,LP_LEBENSPHASE_GROB_10.0,LP_LEBENSPHASE_GROB_11.0,LP_LEBENSPHASE_GROB_12.0,NATIONALITAET_KZ_1.0,NATIONALITAET_KZ_2.0,NATIONALITAET_KZ_3.0,RETOURTYP_BK_S_1.0,RETOURTYP_BK_S_2.0,RETOURTYP_BK_S_3.0,RETOURTYP_BK_S_4.0,RETOURTYP_BK_S_5.0,ZABEOTYP_1,ZABEOTYP_2,ZABEOTYP_3,ZABEOTYP_4,ZABEOTYP_5,ZABEOTYP_6,D19_LETZTER_KAUF_BRANCHE_D19_BANKEN_DIREKT,D19_LETZTER_KAUF_BRANCHE_D19_BANKEN_GROSS,D19_LETZTER_KAUF_BRANCHE_D19_BANKEN_LOKAL,D19_LETZTER_KAUF_BRANCHE_D19_BANKEN_REST,D19_LETZTER_KAUF_BRANCHE_D19_BEKLEIDUNG_GEH,D19_LETZTER_KAUF_BRANCHE_D19_BEKLEIDUNG_REST,D19_LETZTER_KAUF_BRANCHE_D19_BILDUNG,D19_LETZTER_KAUF_BRANCHE_D19_BIO_OEKO,D19_LETZTER_KAUF_BRANCHE_D19_BUCH_CD,D19_LETZTER_KAUF_BRANCHE_D19_DIGIT_SERV,D19_LETZTER_KAUF_BRANCHE_D19_DROGERIEARTIKEL,D19_LETZTER_KAUF_BRANCHE_D19_ENERGIE,D19_LETZTER_KAUF_BRANCHE_D19_FREIZEIT,D19_LETZTER_KAUF_BRANCHE_D19_GARTEN,D19_LETZTER_KAUF_BRANCHE_D19_HANDWERK,D19_LETZTER_KAUF_BRANCHE_D19_HAUS_DEKO,D19_LETZTER_KAUF_BRANCHE_D19_KINDERARTIKEL,D19_LETZTER_KAUF_BRANCHE_D19_KOSMETIK,D19_LETZTER_KAUF_BRANCHE_D19_LEBENSMITTEL,D19_LETZTER_KAUF_BRANCHE_D19_LOTTO,D19_LETZTER_KAUF_BRANCHE_D19_NAHRUNGSERGAENZUNG,D19_LETZTER_KAUF_BRANCHE_D19_RATGEBER,D19_LETZTER_KAUF_BRANCHE_D19_REISEN,D19_LETZTER_KAUF_BRANCHE_D19_SAMMELARTIKEL,D19_LETZTER_KAUF_BRANCHE_D19_SCHUHE,D19_LETZTER_KAUF_BRANCHE_D19_SONSTIGE,D19_LETZTER_KAUF_BRANCHE_D19_TECHNIK,D19_LETZTER_KAUF_BRANCHE_D19_TELKO_MOBILE,D19_LETZTER_KAUF_BRANCHE_D19_TELKO_REST,D19_LETZTER_KAUF_BRANCHE_D19_TIERARTIKEL,D19_LETZTER_KAUF_BRANCHE_D19_UNBEKANNT,D19_LETZTER_KAUF_BRANCHE_D19_VERSAND_REST,D19_LETZTER_KAUF_BRANCHE_D19_VERSICHERUNGEN,D19_LETZTER_KAUF_BRANCHE_D19_VOLLSORTIMENT,D19_LETZTER_KAUF_BRANCHE_D19_WEIN_FEINKOST
0.0696,-0.0291,0.0562,0.0086,0.0283,0.083,0.0182,-0.0186,-0.0582,0.0819,-0.0032,-0.0727,0.134,0.0203,0.0121,0.0578,0.0796,-0.0721,-0.0389,-0.0725,-0.0552,0.0448,0.0583,-0.0367,-0.0019,0.0361,0.0116,0.0028,-0.003,0.0076,0.0453,0.1237,0.0274,0.1047,-0.1229,0.0699,0.0218,-0.0536,-0.0229,-0.0865,0.0419,-0.0687,-0.1181,-0.0672,-0.0136,0.1311,-0.1028,0.0395,0.0161,-0.0373,-0.0324,-0.1071,-0.1392,0.0092,0.0873,0.0915,-0.1343,0.029,0.017,-0.0418,-0.0306,-0.0601,-0.0028,-0.1336,-0.0312,-0.0384,0.0041,0.0166,0.0233,0.0028,-0.0853,-0.0327,-0.0181,0.0133,0.0078,-0.03,-0.0132,-0.0355,0.0334,-0.0214,-0.0355,-0.0374,-0.0323,-0.0074,0.0321,-0.0379,-0.0125,-0.0029,-0.013,-0.0557,-0.008,-0.0411,-0.0775,-0.0114,-0.0609,0.0101,0.0199,-0.0089,-0.0318,-0.0245,-0.0497,-0.0321,-0.049,-0.0367,-0.0129,0.0391,0.0457,-0.0151,-0.0397,-0.0373,0.0711,0.0438,-0.1069,0.0067,-0.1491,0.0774,0.1486,0.1452,-0.0556,-0.0463,-0.1358,0.1443,0.0399,0.0597,-0.026,-0.0439,-0.0342,-0.0342,-0.0041,0.0414,0.0279,0.0224,0.0297,-0.0325,-0.0139,0.0111,-0.007,-0.0437,-0.0281,-0.027,-0.0206,-0.031,0.0247,0.046,0.0101,0.008,-0.1138,-0.051,0.0295,0.0968,0.0914,0.0428,-0.0288,-0.0956,-0.1023,-0.0771,-0.0132,0.0111,0.0427,-0.0627,-0.0143,0.04,-0.0029,0.046,0.0284,0.0278,-0.0015,0.0045,0.0095,0.0342,-0.0328,-0.0228,-0.023,-0.0194,-0.0859,-0.0294,-0.0336,0.0187,0.0208,-0.0474,-0.0429,-0.0408,0.0479,-0.0311,-0.0155,-0.0219,0.003,0.0302,0.0273,0.0198,-0.0394,0.0057,-0.0081,-0.0083,0.0402,-0.0194,-0.0068,0.0476,-0.0071,0.0208,0.0417,-0.0862,-0.0716,0.0327,0.0261,0.047,-0.0588,0.0186,0.0227,-0.0032,0.0009,0.0382,-0.0109,-0.0374,-0.0724,-0.0177,-0.0003,0.0198,-0.0679,0.0252,-0.037,-0.0277,-0.0048,0.029,0.0459,-0.0546,0.0286,-0.0239,-0.1038,0.0812,-0.0358,-0.1372,-0.1512,-0.047,0.1236,0.0494,-0.1499,0.1002,0.1496,0.1439,0.1427,-0.113,0.0252,0.034,0.0511,0.0857,0.0457,-0.025,-0.0141,0.0147,-0.0283,0.035,0.0279,0.0092,0.0276,-0.0292,0.037,0.0472,0.0378,0.0453,0.0191,0.03,-0.0247,0.0031,-0.0015,0.0876,0.0064,-0.0611,-0.0033,0.0373,0.0108,-0.0368,0.0367,0.0609,0.0678,0.0675,0.0349,-0.0325,-0.0515,0.0065,-0.0475,-0.0328,-0.0253,-0.0195,-0.0558,-0.0602,-0.0172,0.0836,0.0202,-0.002,-0.0367,-0.0231,-0.0188,-0.0138,0.0017,-0.0037,0.021,-0.0141,-0.0113,-0.0101,0.0112,-0.0158,-0.0177,-0.0247,0.0032,-0.0042,-0.0059,0.0188,0.0415,-0.0169,-0.001,0.0071,0.0009,-0.0339,0.0048,0.0244,0.025,0.005,0.0585,-0.0176,0.0012,-0.0233,-0.0438,0.1354,-0.0153,-0.0226,-0.0766,-0.0725,0.0129,0.0702,0.0447,-0.0475,0.0189,-0.0447,0.0012,0.0049,-0.035,0.0116,0.0107,-0.0311,-0.0629,-0.04,0.0306,0.0148,0.0204,-0.0157,-0.0212,-0.005,0.0176,-0.0692,-0.033,0.0013,0.0165,0.0502,0.0296,-0.0038,-0.001,-0.002,-0.0017,-0.01,-0.0086,-0.003,-0.0028,-0.0113,0.001,-0.009,-0.0106,-0.0057,-0.0042,-0.0035,-0.0155,-0.004,-0.0004,-0.0076,-0.0018,-0.0056,-0.0029,0.0001,-0.0039,-0.0083,-0.007,-0.005,0.0016,0.0008,-0.0039,0.0152,-0.0017,-0.0181,-0.0104,-0.0046
0.0465,0.0763,0.0038,-0.037,-0.0337,0.024,0.0287,-0.0168,-0.0192,0.0233,0.012,-0.0895,-0.0169,-0.0064,0.0154,-0.021,-0.009,0.0011,0.0256,0.0183,0.013,0.0089,0.0121,0.0246,-0.0022,0.0215,0.0078,0.002,-0.0013,0.0306,-0.0049,0.1079,-0.0811,0.01,0.0016,-0.0297,0.0097,0.0455,-0.0173,-0.0859,0.0238,-0.066,-0.0923,0.0719,0.0019,-0.0392,-0.0747,-0.0506,-0.0147,-0.001,0.0355,-0.0472,-0.015,0.0136,-0.0045,0.0239,-0.0358,-0.083,-0.0501,0.0785,0.1023,0.0404,0.0147,-0.0287,0.1286,0.023,-0.0626,-0.0352,-0.0453,-0.0457,0.0048,0.0668,0.0111,-0.0503,-0.0352,0.0354,-0.0114,0.0263,-0.0891,0.0187,0.1171,0.035,0.03,0.0741,-0.038,0.1038,-0.0003,-0.0134,-0.0398,0.0146,-0.0499,0.107,-0.0055,-0.0037,0.0592,-0.0627,-0.066,0.0001,0.0937,0.0555,0.0242,0.0801,0.0038,0.0456,-0.0096,-0.0292,-0.0096,-0.0288,0.02,0.035,-0.0842,0.0374,-0.1005,0.0819,-0.0308,0.055,0.048,0.0437,0.0216,0.053,-0.0605,0.0407,-0.0488,-0.0446,-0.0095,0.0067,0.0418,0.0337,0.1506,-0.0619,-0.0455,-0.0604,-0.0823,-0.0237,-0.0237,-0.0513,0.0016,0.058,0.0842,0.1149,0.1076,0.101,-0.0945,-0.0162,0.0622,-0.0778,0.0129,-0.114,-0.1189,-0.0365,0.0186,0.0421,0.0305,-0.0892,-0.0867,-0.0721,0.1013,0.0681,-0.0978,0.0134,0.1807,-0.0215,-0.103,-0.0162,0.0626,-0.0114,-0.0231,-0.0023,-0.128,-0.115,0.0365,0.1242,0.1219,0.0629,-0.0265,0.0215,0.1062,-0.0853,-0.0423,0.0574,-0.0073,0.049,-0.1028,0.0574,0.0582,0.1209,-0.0192,-0.0567,-0.0545,-0.0553,0.0211,-0.0333,-0.0324,0.0139,-0.0375,0.1545,0.0029,-0.0631,-0.0847,0.0049,-0.063,0.0571,0.0479,-0.094,-0.1266,-0.1092,-0.0257,0.039,-0.0073,0.1542,0.1209,-0.0055,0.1402,0.032,0.0142,0.0503,0.1456,-0.1479,0.0652,-0.021,0.0626,-0.001,-0.0339,-0.0389,-0.0325,-0.0052,-0.0892,0.0297,-0.0884,0.0658,-0.045,-0.0424,-0.0332,-0.0212,0.0957,-0.1031,-0.0279,0.0566,0.0454,0.0433,0.0382,0.0124,0.0611,-0.03,-0.0427,0.0328,-0.0564,0.0149,-0.0054,0.0288,0.0115,-0.0105,0.0216,0.0215,-0.0266,0.0311,-0.0163,-0.02,-0.0164,-0.0263,0.0032,-0.018,-0.0028,0.0238,-0.0002,0.0998,-0.0023,-0.0003,-0.0003,0.0292,0.0165,-0.0182,0.0444,0.0264,0.0212,0.0165,0.0308,0.0003,-0.0882,0.0044,0.0228,-0.0379,-0.0342,-0.0154,0.0026,0.0084,0.0235,-0.0103,-0.0465,-0.0026,-0.0131,0.0022,0.0163,-0.0146,0.0007,-0.0014,0.0033,-0.004,-0.0169,0.0281,0.0175,-0.003,-0.005,-0.0021,0.0158,-0.0283,0.0245,-0.0104,-0.0212,0.0016,0.0067,-0.0141,0.0901,0.0181,-0.038,-0.0265,-0.0302,0.0059,0.0192,0.0009,-0.0109,-0.0108,-0.0151,0.0043,0.0036,0.0126,-0.0528,0.0404,0.0114,-0.0066,0.0234,0.005,0.0021,-0.001,-0.0109,-0.0065,-0.0084,-0.0158,0.0031,-0.0131,-0.0037,-0.0091,0.0084,-0.0083,-0.02,-0.005,-0.0165,-0.0268,0.0528,0.0084,0.0044,0.0198,-0.0233,-0.0173,0.0075,-0.0022,-0.0006,-0.0003,0.0022,0.01,-0.0084,-0.0016,0.0021,-0.0078,0.0,-0.001,-0.0015,-0.0014,-0.0029,-0.0023,-0.0028,-0.0047,-0.0011,0.0009,0.0007,0.0018,0.0005,0.0012,0.0016,0.0013,0.0083,-0.0017,-0.0036,-0.0019,-0.0032,0.0088,-0.0054,-0.0122,-0.0044,0.0035
0.0455,-0.0351,-0.0443,-0.186,-0.1683,0.0166,0.0108,-0.0673,-0.0409,0.0193,0.0048,-0.0033,0.0275,-0.0948,0.1338,-0.1909,-0.1878,0.1689,0.1694,0.1735,0.1608,0.0157,0.0338,0.0333,-0.0008,0.0376,0.0198,0.0116,-0.0074,0.0001,-0.0729,0.0174,-0.1537,0.0539,0.0971,-0.1858,-0.177,0.1744,0.0957,0.0032,-0.005,0.0019,-0.0179,-0.0049,-0.0042,0.0108,-0.0151,-0.012,-0.0349,-0.0008,0.0396,-0.0194,-0.0194,-0.0076,0.0157,0.0165,-0.021,0.0256,0.019,-0.0355,-0.024,-0.0372,0.0014,-0.0236,-0.0258,-0.0204,0.0066,0.0118,0.0218,-0.0006,-0.015,-0.0078,-0.0066,0.0059,0.0079,-0.0056,-0.0023,0.0039,0.0173,-0.0066,-0.022,0.0333,0.0106,-0.0145,-0.0247,-0.0235,-0.0038,0.0119,0.0032,-0.0224,0.0003,-0.03,-0.0245,-0.0027,-0.0309,0.0166,0.0286,-0.0005,-0.0234,-0.0114,-0.0205,-0.0204,-0.0187,0.0267,-0.0106,-0.0241,-0.0153,0.0114,0.0034,0.0035,0.0272,-0.0223,-0.0127,0.0118,-0.032,0.0087,0.0317,0.0288,-0.024,-0.0242,-0.0264,0.0263,-0.0018,-0.0049,0.0011,0.0033,-0.0002,-0.0001,-0.0299,0.0155,0.0095,0.0115,0.0198,-0.0004,-0.0016,0.0144,-0.0007,-0.0216,-0.0222,-0.027,-0.0238,-0.0306,0.0336,0.0258,-0.0218,0.0133,-0.0356,0.0072,0.0289,0.0225,0.0035,-0.0207,-0.0353,-0.0183,-0.0151,0.0018,-0.0102,0.0166,0.0434,-0.0289,-0.0381,0.0128,0.0104,0.0258,-0.0102,0.0005,0.0001,-0.0103,0.0241,0.0206,-0.0072,-0.0243,-0.0241,-0.017,-0.0111,-0.0143,-0.0177,0.0111,0.0104,-0.0285,-0.0135,-0.0,0.0209,-0.0142,-0.0128,-0.0251,-0.001,0.01,0.0114,0.0119,-0.0074,0.0062,0.0065,-0.0028,0.026,-0.0345,-0.013,0.0302,0.0053,0.0079,0.0271,-0.0341,-0.0433,0.0281,0.0357,0.043,-0.0136,-0.0085,0.0094,-0.0372,-0.0208,0.0126,-0.0244,-0.0319,-0.0323,-0.0208,-0.0312,0.0402,-0.0481,0.0218,0.0082,-0.0015,-0.0043,-0.0054,-0.0055,-0.0239,0.0105,0.1501,-0.0077,-0.0012,-0.0209,-0.0202,-0.0206,-0.1277,0.0185,0.048,-0.0323,0.0151,0.0308,0.0271,0.0255,-0.0351,-0.0106,-0.2021,0.013,0.0241,-0.1328,0.0213,-0.1318,-0.0194,0.1184,-0.0769,0.0049,0.0237,-0.0984,0.1279,-0.0902,-0.1618,-0.1423,-0.1463,-0.0248,-0.1609,0.0176,0.0429,-0.0012,0.01,-0.0784,0.0257,-0.0312,0.0059,0.0082,0.0122,0.0116,0.0634,0.012,-0.0365,0.1063,0.0571,-0.0122,-0.0043,0.1816,-0.0207,-0.0102,-0.0069,-0.022,-0.024,-0.011,0.031,0.0233,-0.0004,-0.0483,0.0056,0.0374,-0.0122,-0.0063,-0.0296,0.0347,-0.0153,-0.0326,0.0244,0.0411,0.026,0.0216,0.039,0.0102,-0.0495,-0.0009,-0.015,-0.0321,0.0248,0.0345,-0.0537,-0.0084,-0.0149,0.0057,0.013,0.0177,0.0131,0.0318,0.0364,-0.039,-0.0537,-0.0239,-0.0082,-0.0124,-0.0001,0.0118,0.0129,0.0131,-0.0938,0.1016,0.031,0.0219,0.0281,-0.039,-0.0424,-0.033,-0.0669,0.0342,-0.0489,0.0275,0.0499,-0.0403,-0.0375,-0.1014,-0.0321,0.0262,-0.0645,0.1244,-0.022,-0.0224,0.1498,-0.0887,-0.0795,0.0139,-0.0145,-0.0065,-0.0023,-0.006,0.0042,-0.0142,-0.0009,0.0025,-0.0112,-0.0023,-0.0123,0.0044,-0.0073,0.0047,0.0006,0.0037,-0.0117,-0.0031,0.0048,-0.0026,0.0069,-0.0011,-0.0006,0.0085,-0.0326,0.0023,-0.0022,-0.0066,0.0011,-0.0038,0.0423,-0.0215,-0.0094,0.0073,0.0044
0.0238,-0.1265,-0.0625,0.0528,0.0429,0.0037,0.0147,0.0461,0.091,0.0058,0.0115,-0.0168,-0.0247,0.028,-0.0626,0.0021,0.0046,-0.0193,-0.0291,-0.0104,-0.0138,-0.0836,-0.1188,0.0159,0.0031,-0.0651,-0.0254,-0.0144,0.0109,-0.0219,-0.0038,0.0561,-0.008,-0.0076,0.0257,-0.0097,-0.0091,-0.0438,0.041,0.0005,-0.0004,-0.006,-0.0609,0.0838,0.0121,-0.0742,-0.0537,-0.0395,-0.0539,0.0279,0.054,-0.0203,0.0092,-0.0373,-0.0024,0.0086,0.0242,-0.0046,0.0277,-0.0273,0.0042,-0.0479,0.0028,0.0047,-0.0065,-0.0568,-0.0509,0.051,0.0739,0.0238,0.0527,0.0488,-0.0113,-0.0468,-0.021,0.0516,0.0531,0.0712,-0.0584,0.0465,0.0234,0.0619,0.0969,0.0158,-0.1093,0.0036,0.0131,0.0085,-0.0408,0.0023,0.0034,0.0087,-0.0269,-0.0139,0.0016,-0.002,0.0416,0.0291,-0.0005,0.0143,-0.0097,-0.0006,0.0119,0.1135,-0.0269,-0.111,-0.1112,0.0383,0.0596,0.0772,0.088,-0.0527,-0.0464,0.0228,-0.0408,-0.023,0.0422,0.0494,-0.069,-0.0175,-0.0752,0.0465,-0.0995,-0.1345,0.0409,0.0834,0.0706,0.0635,-0.0171,-0.0993,-0.0868,-0.0691,-0.0425,0.1019,-0.0066,0.044,0.0369,0.0453,0.0096,-0.0116,-0.0121,-0.0372,0.0758,0.1069,-0.0896,-0.0247,-0.0647,0.0056,0.0856,0.0793,0.032,-0.0488,-0.1089,-0.0614,-0.0553,0.0003,-0.0373,0.0374,0.1056,-0.0693,-0.0361,0.007,-0.0631,0.1069,-0.0302,-0.1035,-0.0525,-0.1201,0.0194,-0.0932,0.1165,0.0224,0.0232,-0.0222,-0.0255,-0.013,0.0558,-0.0589,-0.0397,0.0036,0.0155,0.0786,-0.1242,0.0554,0.0151,0.0056,-0.0649,-0.09,-0.0689,-0.04,0.1234,0.01,0.0441,0.0493,0.0687,-0.0459,-0.0782,0.0589,-0.0622,0.0273,0.0542,-0.0419,-0.0847,-0.0206,0.0151,0.0755,-0.0022,-0.0748,0.0662,-0.0525,-0.0047,0.0346,-0.0159,-0.0771,-0.0497,-0.0794,-0.0952,0.1147,-0.1359,0.074,0.1232,0.0336,-0.0395,-0.0962,-0.1002,-0.0737,-0.0396,-0.0378,-0.0087,-0.0075,0.0452,0.0098,0.0158,0.1191,0.0643,0.1669,-0.0405,-0.0107,0.0423,0.0467,0.0478,-0.065,-0.0301,0.0448,-0.0579,0.0571,-0.0256,0.0378,-0.004,0.0056,-0.0226,0.0005,-0.0023,-0.0378,0.0155,-0.0046,0.0009,-0.0144,0.0002,-0.0007,0.0305,0.0186,0.0372,0.0192,0.002,0.0413,-0.0478,0.039,0.0259,0.0333,0.0051,0.0557,-0.0207,-0.1372,-0.1473,-0.1354,-0.0771,-0.0008,-0.0677,-0.0148,-0.0183,0.0442,0.032,0.008,-0.0505,-0.0575,-0.0327,0.0787,0.0566,-0.0012,0.0798,0.0394,0.0222,0.0271,0.0087,0.0261,-0.0576,-0.0205,0.0195,0.0071,-0.0076,0.0217,-0.0064,-0.0076,0.0067,0.0338,-0.0086,0.0002,-0.0284,0.0069,0.0122,-0.0026,0.0163,-0.044,-0.0388,0.0394,0.0565,-0.025,-0.0962,0.0267,0.0159,0.0453,0.0694,-0.0221,-0.011,0.0268,-0.0318,0.0622,-0.0421,-0.0282,-0.0521,-0.0383,0.0171,0.0196,0.0159,0.0291,0.0338,0.0321,0.0199,0.038,0.0382,0.0291,-0.0192,0.0066,-0.0047,0.024,0.024,-0.0036,-0.031,0.0373,0.0514,-0.0472,0.0228,-0.0114,-0.0266,0.0178,0.0067,0.0043,0.0076,0.0158,0.0237,0.0035,0.0031,0.0338,0.0055,0.0221,0.0077,0.0095,0.0066,0.0013,0.0208,0.0125,0.0027,0.0113,0.0012,0.0077,0.0029,0.0075,0.0058,0.0248,0.009,0.0088,0.0104,0.0042,0.0053,-0.0554,0.0146,0.0273,0.031,0.0076
0.0199,0.049,-0.1113,0.0592,0.0141,-0.0212,-0.0071,0.0659,0.1555,-0.0235,0.01,-0.0792,-0.0057,0.0317,-0.0399,-0.035,-0.0209,0.0079,-0.0051,0.0227,0.0113,-0.1237,-0.1694,0.0479,0.004,-0.0994,-0.0448,-0.0253,0.02,0.0045,-0.0428,0.0816,-0.0727,-0.0795,0.0853,-0.0406,-0.0196,0.0476,0.0318,-0.0198,-0.014,-0.0039,-0.0751,0.0901,0.0339,-0.0756,-0.0689,-0.0429,-0.0077,0.0186,0.0236,-0.0012,0.0338,-0.0143,-0.0205,-0.0107,0.0193,0.0107,-0.0375,0.0121,0.032,0.0125,0.0037,0.0184,0.0378,0.0016,0.0122,-0.0121,-0.0319,0.0007,0.0659,0.0031,-0.0005,0.0104,0.021,0.0027,0.0109,-0.0008,0.0201,-0.0386,0.0305,0.0259,-0.009,-0.0072,-0.0079,0.0384,-0.0232,-0.0152,0.0265,0.0187,0.0059,0.0147,0.0232,0.0292,0.025,0.016,-0.0415,-0.0356,0.0357,0.0196,0.0126,0.0288,0.0103,0.0127,-0.0007,0.0017,0.0194,-0.0204,-0.0018,0.0033,-0.0505,0.0327,-0.0599,0.044,-0.0432,0.0449,0.053,0.047,-0.0134,-0.0555,-0.033,0.0458,0.0784,0.0993,-0.0272,-0.0566,-0.0571,-0.0629,-0.0034,0.1306,0.0987,0.0917,0.0959,-0.1102,-0.0038,-0.0152,-0.046,-0.1061,-0.0573,-0.0367,-0.0339,-0.0211,-0.0311,-0.0166,0.0602,0.026,-0.0394,-0.0647,-0.0705,-0.0239,0.0068,0.0329,0.0411,-0.0482,-0.0532,-0.0474,0.0558,0.0359,-0.0309,-0.0225,0.0092,0.037,0.038,-0.0166,0.0094,0.0918,0.0239,0.0875,0.0228,0.1402,-0.1463,-0.064,-0.065,-0.0172,0.0032,-0.011,-0.0767,0.0499,0.0781,-0.0415,-0.0419,-0.0769,0.1683,-0.0896,-0.0419,-0.0453,0.0393,0.1008,0.1018,0.0763,-0.154,0.0033,-0.0446,-0.061,-0.0132,0.0191,0.0322,0.0052,0.0266,0.0158,0.005,-0.0297,-0.0142,0.0987,0.055,-0.0237,-0.0462,0.1077,-0.0816,0.0109,-0.0046,0.0048,0.0265,0.0138,-0.0334,0.039,0.1014,-0.09,0.0189,-0.019,-0.0819,-0.0182,0.0342,0.069,0.0634,-0.0033,0.0056,-0.0004,-0.0222,0.0149,-0.0014,0.0105,0.0253,0.1463,0.0763,-0.0679,-0.0405,0.0533,0.0501,0.0435,0.0428,-0.039,0.008,-0.0021,0.0309,0.0162,-0.0749,-0.0087,0.004,-0.0355,-0.0187,0.0235,-0.0323,-0.0539,0.0332,0.0195,-0.0121,-0.0182,-0.0413,-0.0076,0.0464,-0.0241,0.0658,-0.0058,0.0026,0.0739,0.0247,0.0191,0.0419,0.0135,0.0234,0.0751,0.0139,-0.1816,-0.1828,-0.159,-0.1005,0.0238,-0.0513,-0.0599,0.0226,-0.0003,-0.0163,-0.0048,-0.0157,-0.0096,0.004,0.0272,-0.0344,-0.0023,0.1111,0.054,0.0303,0.0444,0.0153,0.0406,-0.0908,0.0007,0.0173,-0.0047,0.0063,-0.0028,-0.0003,-0.0058,0.0207,0.0109,0.0215,0.0073,-0.0581,0.0123,-0.0048,0.0056,0.0176,-0.0031,0.0153,-0.0158,-0.0294,-0.028,-0.153,0.0342,0.0101,0.0691,0.1192,-0.0324,-0.0587,0.0432,0.0033,0.0828,-0.0433,-0.085,-0.0637,-0.0462,0.0122,0.0354,0.0101,0.0356,0.0593,0.0272,0.0399,0.0516,0.0914,0.0195,0.0038,-0.0159,-0.0327,0.0323,-0.0018,-0.002,0.0049,0.0741,0.0397,-0.0409,0.0196,-0.0561,-0.0237,0.026,0.013,0.0075,0.0146,0.0227,0.0249,0.0061,0.006,0.0377,0.0102,0.0297,0.02,0.0138,0.0048,0.0065,0.0301,0.0145,0.0026,0.0166,0.0027,0.0123,0.0099,0.0095,0.0084,0.0363,0.0285,0.0135,0.0174,0.005,0.0091,-0.09,0.0217,0.0445,0.0315,0.0096
0.019,0.0164,-0.0076,0.0201,0.0087,-0.0022,-0.0026,0.0487,0.0225,-0.0013,-0.005,-0.016,-0.0072,0.007,-0.1813,0.075,0.0205,-0.0525,-0.0106,-0.0087,-0.1151,-0.0285,-0.0327,-0.0011,0.0016,-0.0044,-0.0026,0.0006,0.0012,0.0013,0.0097,0.0221,0.0673,0.0507,-0.0896,-0.0021,0.0065,0.0029,-0.0504,0.0245,-0.0067,0.0256,-0.0234,-0.0109,0.0055,0.0146,-0.0101,-0.0151,-0.0095,0.0054,0.0156,-0.0118,0.0005,0.0022,0.0108,-0.001,0.0072,0.0305,-0.0079,-0.0154,-0.0117,-0.0124,0.0255,-0.0102,-0.0093,-0.0078,0.0175,0.0019,0.0032,0.0153,0.0132,-0.0177,-0.007,0.0146,0.0303,-0.0172,0.0014,0.0114,0.0211,-0.0158,-0.0082,0.0149,0.0185,-0.0261,-0.0182,-0.0094,-0.0119,0.0113,0.0288,0.0027,0.0193,-0.0189,0.0015,0.0186,-0.0032,0.031,0.0018,-0.0108,-0.0117,-0.0059,-0.0122,0.0016,0.0046,0.0206,0.0042,-0.0196,-0.0203,0.0062,0.0141,0.0141,-0.0354,-0.0311,-0.002,0.0441,0.0119,0.0018,-0.0002,-0.0069,0.0094,-0.0161,0.0057,-0.0197,-0.0147,-0.022,0.0135,0.0192,0.0104,0.0026,-0.002,0.0144,0.0067,0.0123,0.0194,-0.0032,0.0007,0.0046,-0.0041,-0.0117,-0.0143,-0.017,-0.0119,-0.0113,-0.001,-0.0134,0.0049,0.0122,0.0108,-0.0134,-0.0263,-0.0335,-0.0329,-0.0284,-0.0099,-0.0099,-0.0005,0.01,0.038,0.0414,0.0068,-0.0117,0.0035,0.0037,0.0146,-0.0134,0.0042,-0.0004,-0.0087,0.0028,0.0179,0.0253,-0.0152,-0.0204,-0.0204,-0.0108,0.0225,-0.0079,-0.0101,0.0124,0.0188,-0.0091,0.015,0.0085,0.0221,-0.0083,-0.0089,-0.0182,-0.0058,0.006,0.0172,0.0145,-0.0122,0.0036,-0.0021,-0.0056,0.0071,0.009,0.0008,0.008,0.0093,0.0031,0.0018,-0.0047,0.0118,0.0289,0.0195,-0.01,0.0159,0.0263,-0.0217,-0.0027,-0.0054,-0.0083,0.0124,-0.0098,0.0149,0.0101,0.0248,-0.0207,0.0029,0.0107,0.0186,0.0148,0.0025,-0.0137,-0.0198,-0.0065,0.0117,0.0089,0.0127,-0.0264,0.0034,0.0005,-0.0011,0.0329,0.0199,-0.0208,0.0143,0.0015,-0.003,-0.009,-0.0218,0.0108,0.0039,0.0033,0.0126,0.0059,-0.0613,-0.1179,0.0384,0.2827,0.2259,-0.2728,0.3216,0.2567,-0.2677,0.0117,-0.1028,-0.0201,0.112,-0.1545,-0.2453,-0.0198,-0.2944,0.1519,0.0003,0.0295,-0.0081,0.0175,0.0118,0.0047,-0.0146,0.0209,-0.0078,-0.0395,-0.0051,0.0482,-0.0827,-0.004,-0.0331,0.3295,0.0289,0.0066,-0.0013,0.0021,-0.0096,-0.0017,0.0006,0.0084,-0.0062,-0.0011,0.0426,0.0065,-0.0022,-0.0037,-0.0054,0.0104,-0.0217,-0.0145,0.0131,0.0076,-0.0138,-0.0027,-0.0089,-0.0047,0.0117,0.0142,0.0071,0.004,-0.0134,-0.0194,0.0369,-0.027,-0.0119,-0.0082,0.0147,-0.0009,-0.0012,-0.0125,-0.0325,-0.012,0.0498,0.0309,0.0138,0.0247,0.0042,-0.0162,-0.0286,0.0021,-0.0054,-0.0225,0.0146,-0.0417,0.0008,-0.0177,0.0498,0.0231,0.0201,0.0041,0.0218,-0.0079,0.0045,0.0085,-0.0328,0.0141,-0.0274,0.1331,-0.0166,-0.0595,-0.0099,-0.1035,0.0331,0.0542,0.0452,-0.0115,-0.0393,-0.0054,-0.0042,-0.0017,-0.0012,0.009,0.0198,-0.0007,0.0009,0.0213,-0.0003,0.0181,-0.0046,-0.002,0.0,-0.0037,0.0073,0.0076,0.0049,0.0004,-0.0036,-0.0003,-0.0005,-0.0017,-0.0038,0.0223,-0.0021,-0.0038,-0.0019,-0.0049,0.0046,-0.0176,0.0076,-0.0126,0.0148,-0.0025
0.0177,-0.0177,-0.0307,0.0102,-0.0184,0.0305,0.0082,0.0324,0.0506,0.029,0.0019,0.0192,0.0286,-0.0054,-0.0268,-0.008,-0.0245,0.0193,0.0096,0.0239,-0.0039,-0.0331,-0.0367,0.0035,0.0024,-0.0332,-0.0158,-0.0053,0.0046,-0.015,-0.0171,-0.0395,0.0222,-0.0035,0.0138,-0.0124,-0.0613,0.0192,0.0403,-0.0291,0.0112,-0.0446,0.0375,-0.0425,0.0123,0.0121,0.0193,0.0336,0.0383,-0.0113,-0.0485,0.0543,-0.0049,-0.0412,-0.0297,0.0313,0.0063,-0.2047,0.0474,0.1299,0.0593,0.0747,-0.107,0.0107,0.0891,0.0422,-0.0332,-0.0893,-0.0151,-0.0615,0.0047,0.0933,0.0331,-0.0244,-0.2036,0.0808,0.0099,-0.0729,-0.1558,0.1357,0.0486,-0.0436,-0.1037,0.1739,0.1093,0.0591,0.113,-0.0287,-0.1695,0.0164,-0.1053,0.1337,0.015,-0.1246,0.0232,-0.2245,-0.0098,0.1184,0.0835,0.0254,0.046,-0.0131,0.0101,-0.1218,0.0288,0.0928,0.1079,-0.0268,-0.0644,-0.0824,0.0949,0.1029,0.0047,-0.1245,-0.0394,-0.0377,0.0029,0.0458,-0.0707,0.0552,-0.0068,0.0673,0.1079,0.1232,-0.0245,-0.0643,-0.0863,-0.0715,0.0036,-0.0496,-0.038,-0.0324,-0.0178,0.0721,-0.0116,0.0216,0.0275,0.0333,0.0004,-0.0274,-0.0382,-0.0393,-0.0066,-0.0368,-0.0007,-0.0086,-0.0887,0.0232,0.0653,0.0981,0.1078,0.095,0.0356,0.0299,0.0067,-0.045,-0.0966,-0.1197,-0.0186,0.0384,-0.0044,-0.0405,0.0164,-0.0368,-0.0652,-0.032,-0.0171,-0.0433,0.0422,-0.012,0.0428,-0.0226,-0.0216,-0.0219,-0.0407,0.0139,-0.0183,0.0449,-0.0617,-0.0135,-0.009,-0.1053,-0.0354,0.0137,-0.0182,-0.0248,-0.0256,-0.0272,-0.0331,-0.0063,0.0594,0.0163,0.0279,0.0247,-0.0069,-0.0163,-0.0259,-0.0202,0.0329,-0.0443,-0.0327,-0.0163,0.0231,-0.1227,-0.0828,0.0324,-0.0183,-0.1072,0.1193,0.0231,-0.0256,0.0204,-0.076,0.0122,0.0055,-0.0177,-0.0886,0.0662,0.0341,-0.0291,-0.1372,-0.0214,0.06,0.0974,0.0875,0.0199,0.0403,0.0282,-0.0029,0.0357,0.0118,0.0113,0.0019,0.0227,-0.0271,0.0229,-0.0441,-0.023,0.0105,0.0451,0.0703,-0.0892,-0.0664,-0.0267,0.0155,-0.0004,-0.017,-0.0895,0.0019,0.0571,0.0596,-0.0402,0.0348,0.0199,-0.041,0.0081,-0.0451,-0.018,-0.0084,-0.0426,-0.046,-0.0306,-0.0517,0.0202,0.0005,-0.0725,0.0569,-0.0177,0.0142,-0.0105,-0.0122,0.0283,-0.0274,-0.049,-0.0428,-0.0268,-0.0495,0.0156,0.081,0.0432,0.0393,0.0081,0.0126,-0.0021,0.0335,0.0163,-0.0061,-0.026,0.0045,0.0054,0.0289,0.0096,-0.0039,0.0152,0.0003,0.0079,-0.0259,0.0157,0.0102,-0.0063,-0.0054,-0.0199,-0.0043,0.0039,-0.0181,0.0188,0.0031,0.0027,0.0037,0.0089,-0.02,0.0085,0.0623,0.0388,-0.0335,-0.0657,0.001,-0.0079,-0.0456,-0.0006,0.0108,0.0186,0.0417,-0.0005,-0.0268,0.0208,0.0424,-0.0279,-0.0023,-0.0415,-0.0085,-0.013,-0.004,0.0033,0.0108,0.0099,0.0157,0.0037,0.0229,0.0051,0.0368,-0.0154,0.0158,-0.0024,-0.0414,0.0411,0.0181,0.0055,-0.0163,-0.0199,-0.0023,0.0178,0.0234,-0.0301,-0.0071,0.0055,0.0018,0.0016,0.0004,0.0014,0.0069,0.0005,0.0016,0.0071,0.0014,0.0057,0.0057,0.0021,0.0037,0.0025,0.0096,0.0043,0.0016,0.0021,0.0004,0.0015,0.0014,0.001,0.0017,0.0069,0.0018,0.0027,0.0047,-0.0008,0.0029,-0.0279,0.0076,0.0166,0.0051,-0.0002
0.0154,-0.0318,-0.0458,0.0166,-0.0019,0.0011,0.0078,0.0343,0.0527,-0.0001,0.0068,0.0308,0.002,-0.0003,-0.0219,-0.0172,-0.0275,0.0314,-0.0048,0.0337,0.0137,-0.0632,-0.0809,0.0081,0.004,-0.0537,-0.0222,-0.0101,0.0078,-0.0282,0.0014,-0.0648,0.0014,0.0082,0.0118,-0.0224,-0.0384,0.0186,0.031,-0.083,0.0127,-0.0696,0.075,-0.036,0.0025,0.002,0.0215,0.0687,0.0775,-0.0335,-0.107,-0.0083,-0.042,-0.0075,0.0174,0.0316,-0.0422,0.1168,-0.0286,-0.0713,-0.0482,-0.0136,0.0521,-0.0262,-0.0904,0.0511,-0.0396,0.0722,-0.0237,0.0417,-0.0643,-0.083,0.0417,-0.0214,0.1102,-0.0695,-0.0363,-0.0285,0.126,-0.1036,-0.0557,-0.1021,-0.0239,-0.1054,0.0417,-0.0704,-0.0755,0.019,0.0787,-0.0459,0.096,-0.0941,-0.0092,0.0472,-0.0481,0.1152,0.0273,-0.0782,-0.0857,-0.0335,-0.0183,-0.0237,-0.048,-0.0579,0.0114,0.0327,0.028,-0.0025,-0.0233,-0.0325,0.1095,0.1905,0.0017,-0.2056,-0.0212,-0.0012,0.0005,0.0115,0.0588,0.0746,0.0013,0.043,-0.0234,-0.0098,-0.0337,-0.0291,0.0332,0.0576,0.0258,-0.0113,0.0112,-0.0199,-0.0719,-0.0524,0.0242,-0.0488,-0.0149,0.0451,0.0692,0.0942,0.0863,0.1,-0.0333,0.083,0.0073,-0.0679,0.0388,0.0228,0.0547,0.1205,0.1528,0.173,0.1216,0.0538,-0.0037,-0.0676,-0.1561,-0.1983,-0.0698,0.0876,-0.0055,0.0092,-0.106,0.083,0.0723,0.0641,0.0811,0.065,-0.1267,-0.0994,0.0252,0.1089,0.1085,0.0752,-0.0633,0.0831,0.0235,-0.0969,0.0018,0.0566,-0.0588,0.0617,-0.0545,0.0284,0.0636,0.1032,0.0775,0.0092,-0.0414,-0.057,-0.0042,-0.0345,-0.0222,0.0011,-0.0601,-0.0343,0.0509,-0.0529,-0.0896,0.0181,-0.0075,0.0268,-0.0344,-0.0145,-0.0093,0.011,-0.0788,-0.0146,-0.0143,-0.0048,0.0398,0.0061,0.0113,0.0637,-0.0607,-0.0187,-0.0166,0.0012,0.0089,-0.0462,0.0241,-0.0338,-0.0416,-0.0098,0.012,0.0705,-0.0338,0.0167,-0.0439,0.0878,0.0685,0.0019,-0.0309,0.0551,-0.0608,0.0433,-0.0258,-0.0038,0.0118,0.0229,0.0515,0.0376,0.073,-0.0188,-0.0198,-0.0657,-0.0344,-0.0445,0.0113,-0.0168,0.0366,-0.0212,0.0033,0.0201,-0.0519,0.0396,0.0029,-0.0462,-0.013,-0.0401,-0.0206,-0.0255,-0.0102,0.0127,0.0007,-0.0803,0.0593,-0.0219,0.0114,-0.01,-0.0064,0.0394,0.0338,-0.08,-0.0791,-0.0663,-0.041,0.0023,0.0865,0.0191,0.0412,0.0697,0.0503,0.0223,0.0483,0.0222,0.0117,-0.0434,-0.0221,-0.001,0.0627,0.0226,0.0024,0.0233,0.0036,0.0207,-0.0542,0.0158,0.0157,-0.0375,0.0057,-0.0145,0.002,-0.0064,-0.0095,0.0098,0.004,0.0024,0.0117,-0.0124,0.0193,-0.004,-0.0562,0.0317,-0.0448,0.0586,-0.0177,-0.0165,-0.0497,0.0064,0.0068,0.0332,0.0383,-0.0153,0.0094,0.0269,0.026,-0.0351,-0.0204,-0.0328,0.007,-0.0411,0.0046,0.0041,0.0068,0.0135,0.0317,-0.0033,0.026,0.0051,0.0373,0.0224,-0.0147,-0.0097,-0.0468,0.0362,0.0294,0.0218,-0.0308,0.0037,0.0179,0.0068,-0.0041,-0.0224,0.002,0.011,0.0036,0.0028,0.006,0.0119,0.0176,0.0033,0.0039,0.022,0.0038,0.0152,0.0065,0.0081,0.0039,0.0021,0.0169,0.0079,0.0015,0.0065,0.0018,0.0052,0.0024,0.0038,0.0021,0.0241,0.0033,0.0053,0.0043,-0.0015,0.0045,-0.0535,0.007,0.0241,0.0169,0.0041
0.0143,-0.0786,0.0452,-0.0199,0.009,-0.067,0.0014,-0.0418,-0.0837,-0.0664,0.0091,0.0489,-0.0371,-0.0157,-0.0016,0.0268,0.0119,-0.0252,-0.0124,-0.0088,-0.019,0.0501,0.0672,-0.0098,-0.0014,0.0504,0.0233,0.0153,-0.012,-0.0217,0.0283,-0.0528,0.0323,-0.006,0.0079,0.0079,0.0347,-0.059,-0.0079,-0.0277,0.0009,-0.0245,0.054,0.0467,-0.0222,-0.0607,0.0244,-0.0339,-0.0199,0.0214,0.03,0.0441,0.0551,0.0103,-0.0453,-0.0659,0.0473,-0.0604,-0.0514,0.0561,0.101,0.0563,-0.0083,0.091,0.0774,0.042,-0.1697,0.0404,0.0134,-0.075,0.0347,0.1374,0.0542,-0.1665,-0.0725,0.1192,0.0296,0.0838,-0.0925,0.0226,0.1173,0.0323,0.0872,0.0837,-0.0894,0.1045,-0.0134,-0.0165,-0.0778,0.0208,-0.0564,0.1011,0.0177,-0.0149,0.0771,-0.0523,-0.0171,-0.0079,0.0785,0.0693,0.0731,0.067,0.0108,0.0965,-0.0352,-0.0814,-0.0776,-0.0067,0.055,0.0909,0.0584,0.0076,0.0085,-0.0529,-0.0292,0.0238,0.0116,-0.0044,-0.001,-0.0068,-0.0002,0.0279,0.0014,0.0186,-0.0385,-0.0387,0.0075,0.0269,-0.0645,0.1171,0.108,0.0799,0.0456,-0.1464,0.0204,-0.0443,-0.067,-0.0873,-0.0175,0.0292,0.0182,0.0269,0.0425,0.134,-0.0366,-0.04,-0.0056,0.0378,0.0534,0.0427,0.0209,0.0061,-0.0111,0.0116,-0.0045,0.0101,-0.0704,-0.043,0.0239,0.0367,-0.0936,0.0329,-0.0936,0.134,0.0027,0.112,0.0921,0.0948,-0.0667,0.0456,-0.111,0.0226,0.0218,0.0359,-0.0207,0.0504,-0.0305,-0.0943,0.0594,-0.0148,-0.1139,0.0208,0.1095,-0.0689,0.0034,0.0326,0.094,0.1004,0.058,0.0271,-0.1483,-0.0267,-0.0467,-0.069,-0.016,-0.0979,0.0227,0.0085,-0.0923,0.0369,0.0393,0.0028,-0.1475,0.1071,0.1062,0.0727,-0.1135,0.0248,-0.0748,-0.0976,-0.0117,0.0186,-0.0106,0.0032,-0.1448,-0.0337,-0.0208,0.0333,-0.0893,-0.0055,0.012,-0.0431,-0.0398,-0.0005,0.0159,0.0446,-0.0669,-0.0235,-0.0022,0.0341,0.026,0.0358,0.0741,-0.0415,-0.0503,0.0969,-0.0333,0.0187,0.0166,0.0022,0.0316,-0.0056,0.0038,0.034,-0.0615,-0.0301,0.0207,0.0466,0.0216,0.0441,0.0054,-0.0306,0.0271,0.0582,-0.0287,0.0018,-0.0056,0.0093,0.0396,-0.0078,-0.0194,0.037,-0.0339,0.0275,-0.002,-0.0536,-0.0178,0.0001,-0.031,-0.0061,-0.0092,-0.036,0.033,0.0756,0.0717,0.0562,0.0589,-0.0205,0.0317,0.0485,-0.0251,0.0169,0.0233,0.0091,-0.0015,-0.0153,0.0009,0.0023,0.0218,0.0002,-0.0425,-0.0163,-0.0048,-0.0276,-0.0095,-0.0166,0.0397,-0.001,-0.0036,0.0243,-0.0063,0.0233,0.0087,0.0143,-0.0227,-0.0129,-0.0267,-0.0007,0.0131,-0.0101,0.0213,-0.0097,0.0877,0.0462,-0.1401,0.0321,0.0113,0.0091,0.0882,-0.0206,-0.0103,-0.0383,-0.0645,-0.0711,0.0445,0.0118,0.016,0.0228,0.0069,0.0534,-0.0056,0.0768,-0.0336,0.0065,-0.0103,-0.0342,-0.0201,-0.0281,-0.0549,-0.0022,-0.0283,0.0224,-0.0336,0.0106,0.0138,0.0005,0.0223,-0.0007,-0.0292,0.0031,0.0133,-0.0071,-0.0208,0.0316,-0.0025,-0.0115,-0.0105,-0.0045,-0.0051,0.0,-0.0085,-0.0016,-0.0007,-0.0106,-0.005,-0.0104,-0.009,-0.002,-0.0003,-0.0035,-0.0109,-0.0055,-0.0018,-0.0054,-0.0015,-0.0054,-0.0071,-0.0038,-0.0033,-0.0088,-0.013,-0.0057,-0.014,-0.0051,-0.0024,0.0434,-0.0125,-0.0269,-0.0117,-0.0016
0.0132,0.0264,0.0092,-0.0053,0.0021,0.0083,0.0136,-0.0216,-0.0351,0.0072,0.0014,-0.0137,-0.0357,-0.0024,0.0006,0.0026,0.0022,-0.02,-0.015,-0.0024,-0.0027,0.0225,0.0278,0.0037,0.0015,0.0249,0.0132,0.0083,-0.0061,-0.0011,-0.0025,0.0328,-0.02,-0.0337,0.0214,-0.0015,0.0227,-0.0055,-0.0098,-0.0062,0.0001,-0.0143,-0.0372,0.0183,-0.008,-0.0281,-0.0392,-0.0155,0.0024,0.005,0.0069,0.0333,0.0374,-0.042,-0.0359,0.0144,0.0276,0.0674,-0.0437,-0.013,-0.0156,0.0419,0.0399,0.0218,-0.0376,0.1897,-0.1114,0.0065,-0.0643,-0.0827,0.0746,-0.0538,0.1558,-0.0851,0.0778,-0.0429,-0.0111,0.0153,0.0861,-0.0783,-0.0171,0.0055,0.0115,-0.072,-0.0207,0.0022,-0.0699,0.0349,0.0724,0.0053,0.0456,-0.0397,0.0367,0.0526,0.0042,0.0716,0.0147,-0.0743,-0.0287,-0.0093,0.0204,0.009,-0.0118,0.0225,0.0047,-0.0198,-0.0032,-0.0169,0.0144,0.0233,-0.0021,0.0802,-0.1002,0.0061,0.0318,-0.0607,-0.0374,0.0043,-0.1905,0.086,-0.0435,0.029,-0.0185,-0.0456,0.0946,0.0926,-0.026,-0.0393,-0.0226,-0.0594,-0.0767,-0.0193,0.0559,0.1306,-0.0432,0.0505,0.0197,0.0097,-0.0559,-0.0994,-0.1195,-0.1225,-0.0919,0.0307,-0.0078,-0.094,-0.1334,-0.0768,-0.0553,0.0364,0.0747,0.0881,0.029,-0.0825,-0.0913,-0.0885,0.0039,0.0061,-0.1128,0.1996,-0.0142,-0.0535,-0.129,0.0307,-0.1678,-0.11,-0.1116,-0.1157,0.1593,0.0768,0.0164,-0.1201,-0.119,-0.0755,-0.0189,0.1702,-0.0474,-0.0872,0.0234,0.0221,-0.0292,-0.0605,0.012,-0.0216,-0.0771,-0.0996,-0.1217,-0.0511,0.0018,0.0657,0.0457,0.0362,0.0467,0.0096,-0.0677,-0.0099,-0.1078,-0.0801,-0.101,-0.0302,-0.0517,0.0123,-0.0025,0.0022,-0.019,0.0102,-0.044,0.032,-0.0621,0.0037,-0.0378,-0.0312,0.0049,0.0725,-0.0235,0.0198,0.0467,-0.0441,0.0027,-0.0604,-0.036,0.1035,0.1021,-0.0063,-0.0509,0.1922,-0.0032,-0.0106,0.0309,0.0141,-0.0166,0.0382,0.0303,-0.0189,0.0438,-0.0358,0.0307,-0.0514,-0.036,-0.0028,0.032,-0.1331,-0.1687,0.0116,0.0189,0.0014,-0.005,0.0076,0.0241,-0.0042,-0.0037,-0.0032,0.0083,0.0144,-0.0015,-0.0022,-0.0014,0.0055,0.0083,0.0059,0.0055,0.0066,-0.0002,-0.006,0.0005,-0.0045,0.0245,0.0019,-0.0165,0.0356,0.0062,-0.0199,0.0071,0.0409,0.0451,0.0384,0.028,0.0008,-0.0217,0.0002,-0.0081,-0.0194,-0.009,-0.0118,0.0001,-0.0023,0.0147,0.0088,-0.0564,0.0104,-0.0208,-0.0072,-0.0005,-0.0121,-0.0003,-0.0038,0.0197,-0.0001,0.0002,0.0003,0.0161,-0.0016,0.0093,0.0094,-0.0066,-0.0121,0.0111,-0.0057,-0.0122,-0.0142,0.0099,0.0041,-0.0395,0.1721,-0.1142,-0.0059,-0.0549,0.0017,0.0473,-0.0181,-0.0137,-0.016,-0.027,-0.0187,-0.0126,-0.0005,0.0257,0.013,-0.0017,0.0286,0.0004,0.0387,-0.0272,0.0033,-0.0137,-0.0198,-0.0035,-0.0221,-0.0294,0.0051,-0.0017,0.0165,-0.0149,-0.0043,0.0033,-0.0027,0.0075,-0.0062,-0.0024,0.0126,-0.0043,-0.005,-0.0094,0.0107,-0.0015,-0.0042,-0.0022,-0.0008,-0.0008,0.0022,-0.0059,-0.0006,0.0021,-0.0045,-0.0034,-0.0061,-0.0023,0.0013,-0.001,-0.0004,-0.0047,-0.0029,-0.0016,-0.0022,0.0006,-0.002,-0.0008,0.0002,-0.0008,0.002,-0.0028,-0.0016,-0.0086,-0.0039,-0.0004,0.0221,-0.0079,-0.0128,-0.0092,-0.0006
0.0121,-0.0095,-0.0251,0.0138,0.0072,0.0563,0.0337,0.0251,0.0514,0.0589,0.0057,0.0784,0.0403,0.0031,0.0105,-0.0025,-0.0069,0.0375,0.0072,-0.0078,0.0218,-0.0449,-0.0578,0.011,0.005,-0.0387,-0.0189,-0.0089,0.0074,0.0042,0.0018,-0.0618,0.0262,0.0692,-0.0503,0.0115,-0.0174,0.0029,-0.0068,0.0481,0.0097,0.0233,0.0479,-0.0466,0.0123,0.0652,0.0769,0.016,-0.0709,-0.0219,0.0655,-0.0418,-0.0684,-0.0008,0.0516,0.0474,-0.0626,-0.0317,0.0975,-0.0397,-0.065,-0.0381,0.0001,-0.0754,-0.0419,0.1857,-0.0961,-0.0808,-0.0077,-0.1158,-0.0939,-0.0229,0.161,-0.0773,-0.0726,-0.0429,-0.1298,-0.0576,0.0059,0.0254,-0.0629,0.0471,-0.052,0.0289,0.0153,-0.0441,0.0304,0.1017,-0.0586,-0.1261,-0.0284,-0.039,-0.0634,-0.0661,-0.1349,-0.0763,0.1228,0.0573,-0.0588,-0.0332,-0.0594,-0.0513,-0.1318,-0.0153,-0.0076,0.013,0.0456,0.0079,-0.0411,-0.0598,-0.1165,-0.2084,0.0225,0.1806,0.0024,-0.0088,-0.0028,-0.0042,-0.0013,0.089,0.0347,-0.0198,0.0058,0.0316,-0.0611,-0.0561,0.0066,0.0111,-0.0162,0.0418,0.0441,0.0212,-0.0071,-0.0777,-0.0167,-0.0388,-0.0295,-0.0266,0.0152,0.0384,0.0332,0.0138,-0.0028,0.0004,-0.0704,-0.0799,-0.0105,-0.004,-0.0639,-0.1341,-0.162,-0.1807,-0.1431,-0.0391,0.0167,0.0986,0.1238,0.1778,-0.0033,0.1519,-0.0125,-0.1057,-0.1137,0.0004,-0.0232,0.0428,0.0325,0.0308,-0.0635,-0.0106,-0.0425,0.0439,0.0425,0.0264,0.0484,0.108,0.0359,-0.0971,-0.0454,-0.0562,-0.0897,0.0106,0.0218,-0.0183,0.0142,0.0427,0.0285,0.0391,0.0051,-0.0084,-0.062,-0.0316,-0.0202,-0.0305,-0.0057,-0.0055,-0.0129,-0.0227,-0.0827,-0.0616,-0.0577,0.0095,-0.076,-0.0644,-0.0404,0.0769,-0.067,-0.0648,0.0459,-0.0017,0.0125,-0.0101,-0.0173,-0.0366,-0.0782,0.0241,-0.0263,0.0247,-0.0169,0.0025,0.0217,-0.0659,-0.0614,-0.0034,0.0174,0.141,-0.014,-0.0048,0.0248,-0.0388,-0.0446,-0.0447,-0.0715,0.0377,-0.0487,0.0169,-0.0031,-0.005,-0.0057,-0.006,-0.0233,-0.0094,-0.0238,-0.0051,-0.0213,-0.0022,0.0342,-0.0293,-0.0245,-0.0092,-0.0079,0.0136,-0.0227,-0.0445,-0.0065,0.0056,0.0185,-0.017,-0.0075,-0.0004,0.0074,-0.002,0.0063,0.0104,0.0009,-0.053,-0.0698,0.0071,0.0203,0.001,-0.0082,0.0368,0.0145,-0.0625,-0.069,-0.0609,-0.0291,-0.0058,0.0124,-0.0048,-0.0036,-0.0422,-0.0246,-0.0213,0.0,0.0019,0.0069,-0.0186,0.0141,0.0048,0.0321,0.0183,0.0115,0.023,0.0035,0.0104,-0.0357,-0.0084,-0.0025,0.0213,-0.0022,-0.0052,-0.0085,-0.011,-0.0079,0.0173,0.004,-0.0119,0.0088,0.0327,-0.0021,-0.0247,-0.023,0.1714,-0.1143,-0.063,0.0003,-0.0083,-0.0594,0.0169,0.0153,0.0122,0.0462,0.0394,0.0336,0.002,-0.0358,-0.0565,-0.0071,-0.0134,0.0039,-0.0765,0.0388,-0.0173,0.0153,0.0277,-0.0085,0.041,0.043,0.0013,0.0008,-0.0024,-0.0008,0.0053,0.0135,0.0005,0.0091,0.0249,-0.0373,-0.007,-0.0158,0.0005,0.0144,0.0029,-0.0067,0.0061,0.0058,0.003,0.0023,0.0076,0.0108,0.0015,0.0022,0.0105,0.0054,0.0093,0.0058,0.0025,0.003,0.0032,0.0104,0.0063,0.0019,0.0072,-0.0002,0.005,0.0039,0.0011,0.0039,0.0039,0.0018,0.0061,0.0087,0.006,0.003,-0.0361,0.0081,0.0224,0.0129,0.0046
0.0109,-0.0377,-0.0006,-0.004,0.0011,0.0098,0.0121,-0.0057,-0.0175,0.0084,0.0064,-0.0261,-0.0092,0.0024,0.0009,0.003,0.0091,-0.012,-0.0066,0.0066,-0.022,-0.0008,0.0016,-0.0084,-0.0022,-0.0103,-0.0061,0.0019,-0.0013,-0.0435,0.0145,-0.0211,0.0153,-0.0276,0.0283,0.0004,-0.035,-0.0163,0.049,-0.0059,0.0067,-0.0236,0.0254,-0.0151,-0.0055,-0.0007,-0.0039,0.0066,-0.0262,0.0395,0.0005,0.0384,0.0187,-0.0112,-0.0471,-0.005,0.0382,0.1114,-0.0987,-0.0642,0.0944,-0.0674,0.0291,0.0458,0.0665,-0.1433,0.0544,0.0344,0.0025,0.067,0.047,0.0801,-0.1159,0.0426,0.0983,0.0868,-0.0771,-0.0694,0.1051,-0.1625,0.083,0.0039,-0.0982,-0.0445,0.0689,0.0695,-0.0626,-0.0636,0.0791,-0.1048,0.0394,-0.0175,0.0206,0.0523,-0.0622,0.1068,-0.0798,-0.0782,0.0811,0.0721,0.0107,0.0161,-0.1115,-0.0628,-0.0082,0.065,0.0951,-0.0224,-0.0468,-0.0774,-0.0471,-0.0842,0.0626,0.0202,0.0125,-0.0505,-0.0666,-0.0323,-0.2102,-0.0394,0.0339,0.0193,0.0874,0.0975,-0.0412,-0.0636,-0.0695,-0.0539,0.0596,-0.0217,-0.0071,-0.0165,-0.0336,-0.0512,-0.0756,-0.0553,-0.0247,-0.0301,0.0498,0.1026,0.0415,-0.0006,0.0193,0.0343,-0.0302,0.0005,-0.1571,-0.0045,-0.0261,-0.0567,-0.0708,-0.08,-0.0458,0.0273,0.0493,0.0774,0.0328,0.0149,0.0093,-0.107,0.0673,-0.0276,0.0073,0.0343,-0.2453,-0.0643,-0.0689,-0.0837,-0.082,-0.0496,-0.0281,0.1076,0.1063,0.0139,0.0447,-0.0594,0.099,-0.0193,-0.051,-0.0051,-0.12,-0.0987,-0.0372,-0.0009,-0.0016,0.1084,-0.0744,-0.0155,-0.0176,-0.0239,-0.0463,-0.038,-0.0416,-0.0231,-0.015,0.052,-0.1185,-0.0076,-0.0048,0.0031,-0.0338,0.0902,-0.1433,-0.0295,-0.0152,-0.0315,-0.1224,-0.0396,0.009,0.0536,0.0603,0.0513,0.0492,-0.0375,-0.1458,-0.0448,0.0076,0.0176,-0.0817,-0.0135,-0.0866,-0.0324,0.0335,0.064,0.0433,-0.1111,-0.0071,-0.0013,0.0322,0.0109,0.0236,0.0362,0.0267,-0.0018,-0.0146,0.0445,0.0111,-0.0496,-0.0657,-0.0404,0.0184,-0.157,-0.2436,0.0044,-0.0132,0.0177,0.0019,-0.0501,0.0021,-0.0129,0.0038,-0.0003,0.0071,0.0515,-0.0056,-0.0083,-0.0035,0.0191,0.0109,-0.0043,0.0018,0.0084,-0.0153,-0.005,0.0002,-0.0418,-0.0034,0.0152,-0.0113,-0.0404,0.0188,-0.0032,0.0107,0.0079,0.014,0.0156,0.001,-0.0094,0.0372,0.008,-0.0016,0.0166,0.0141,0.0138,-0.0065,-0.0197,-0.0113,0.017,0.0309,0.0137,0.0017,-0.0011,-0.0083,0.0055,0.0004,-0.0071,-0.0028,0.0075,0.0121,-0.0105,-0.0045,0.001,0.0068,0.0016,-0.0091,-0.0095,-0.0094,0.0151,0.0043,-0.0138,0.0077,0.0057,0.0654,-0.1398,0.0745,0.03,0.0034,0.0,0.0218,-0.0123,-0.0012,-0.0084,-0.0107,-0.0284,-0.0142,0.0171,0.0556,-0.0155,-0.0036,0.0008,-0.006,0.0398,-0.0233,0.0073,-0.0012,-0.0155,0.0027,-0.0145,-0.0183,0.0075,0.0058,-0.001,0.0023,0.0031,-0.0162,0.0083,0.0121,0.0083,-0.0101,-0.0042,0.0064,-0.0045,0.0019,-0.0031,0.009,0.0036,0.0011,0.0001,-0.0008,-0.0023,-0.0026,0.0004,-0.0007,-0.002,0.0001,-0.0038,0.0019,0.0007,0.0016,0.0,-0.0009,-0.0012,-0.0009,0.0012,0.0004,-0.0031,-0.0014,0.0015,-0.0012,-0.0068,0.0017,-0.0005,-0.0018,-0.0033,0.0041,-0.0052,-0.0005,0.0087,-0.0025,-0.0008
0.0099,-0.0791,0.0013,-0.0158,0.0014,0.1139,0.0521,0.0268,-0.032,0.1148,0.0082,-0.0018,-0.0059,-0.0039,0.0074,-0.0131,-0.0062,0.0075,-0.0024,0.0179,-0.0028,-0.0088,-0.0084,-0.0196,0.0021,-0.0122,-0.0016,-0.0019,0.0008,-0.0357,0.0446,-0.023,0.0013,0.0124,-0.001,-0.0163,-0.05,0.0006,0.0554,-0.0575,0.0412,-0.0891,0.0297,-0.0404,-0.0155,-0.0004,0.0111,0.0104,0.0841,-0.0107,-0.0971,0.009,-0.0531,-0.0771,-0.0318,0.1136,-0.0245,0.0064,-0.0522,0.0446,-0.0001,0.0371,0.0275,-0.0441,-0.0599,-0.0466,-0.1393,0.1412,0.1297,0.0967,-0.0091,-0.0598,-0.0383,-0.1126,0.0262,-0.0476,0.1665,0.0341,-0.0253,0.0387,-0.0206,-0.0752,0.0147,-0.0277,0.0276,-0.0454,-0.0741,-0.0857,-0.0555,0.1769,0.0679,0.0133,0.0044,0.0384,0.1674,0.0198,-0.0493,-0.0599,-0.057,-0.0141,0.0843,0.0132,0.1805,-0.0301,0.0036,0.0213,-0.0059,-0.0234,0.0115,0.032,-0.1253,-0.1212,0.0081,0.1095,-0.0241,-0.1021,-0.0304,0.0454,0.0204,-0.034,0.0047,0.0416,0.1038,0.1109,-0.0049,-0.0402,-0.079,-0.0835,-0.0073,-0.005,0.0135,-0.0151,0.0082,0.0202,0.0397,0.0226,0.0079,-0.0167,-0.0183,-0.0207,-0.0321,0.0191,0.0645,0.0953,-0.0039,-0.0998,-0.019,-0.0584,-0.0943,-0.1214,-0.115,-0.114,-0.0416,-0.0117,-0.0171,0.0594,0.0984,0.0995,0.0836,-0.0226,-0.0118,0.067,-0.1352,0.0953,0.0193,0.0511,0.051,0.0479,0.0194,0.015,-0.0007,-0.0334,-0.0343,0.0171,0.0517,-0.0041,-0.0163,-0.0915,-0.0557,0.1118,0.1197,-0.0995,-0.0038,-0.0124,-0.0003,-0.0188,0.0495,-0.0094,-0.0155,0.0043,0.0205,0.0195,0.0171,0.0045,0.0333,-0.0162,0.0232,0.041,-0.0915,0.0483,0.064,0.0514,0.101,-0.104,-0.1025,-0.055,0.1173,-0.0294,-0.0328,-0.0229,0.0077,0.0606,-0.0143,0.0977,0.1214,0.0602,0.0029,-0.0467,0.0732,0.0632,-0.1058,0.0066,0.0785,0.0926,0.0425,-0.0124,-0.0385,0.0074,-0.022,0.0495,0.1212,-0.0079,-0.0522,0.0008,-0.0092,0.0995,-0.0283,-0.0858,-0.0196,0.0475,0.0457,-0.0195,0.0211,-0.0097,-0.0649,-0.067,-0.04,-0.0157,0.0219,-0.0108,0.0063,0.0102,-0.0097,0.0129,-0.0059,-0.0131,0.0134,-0.019,-0.0133,-0.0151,0.0039,0.0017,0.0133,-0.0089,-0.0008,-0.0227,0.029,-0.0086,-0.0044,-0.0,0.013,-0.0083,-0.0541,-0.0014,-0.0006,-0.0005,-0.0149,-0.0215,0.0508,-0.0126,0.0167,0.1299,0.0926,0.0405,0.0446,0.0219,-0.0212,-0.0132,-0.0157,0.0008,0.0155,-0.0013,-0.0158,0.006,0.0036,0.0034,-0.0128,-0.0072,0.0215,-0.0322,-0.0077,-0.0053,-0.0107,-0.0177,-0.0107,0.0083,0.0092,0.0092,0.0274,-0.0321,0.0031,0.029,-0.0326,-0.0371,-0.1165,0.1247,0.0972,-0.0069,0.0278,-0.0074,0.0128,0.0382,-0.0505,0.0152,-0.0062,0.0191,0.0133,-0.0401,-0.0131,-0.0106,0.0432,0.0062,-0.0029,-0.0074,0.0128,0.0117,0.0399,-0.0299,-0.0044,-0.026,-0.0281,0.0146,-0.0069,-0.0033,-0.0399,-0.007,0.0487,0.0121,-0.0159,-0.015,0.0198,0.001,-0.0003,-0.0191,0.0248,0.0049,0.0029,0.0024,-0.0,0.0021,0.0029,-0.0016,-0.0002,0.0076,0.0037,0.0011,-0.0023,0.0033,0.0002,-0.0,-0.002,0.0005,-0.0001,-0.0005,0.0037,-0.0015,-0.0015,0.006,-0.0008,0.0046,-0.0009,-0.0004,-0.0006,0.0008,0.0032,-0.0159,-0.0005,0.0058,-0.0025,-0.0011
0.0091,0.0523,-0.0148,-0.0055,0.0028,0.1272,0.0767,0.0252,-0.0155,0.1304,-0.0026,-0.0142,0.0237,-0.0125,0.0319,-0.0122,-0.0042,0.033,-0.0033,0.0307,0.0313,-0.0269,-0.046,-0.0088,0.0026,-0.0403,-0.0125,-0.012,0.0093,-0.0131,0.0546,-0.0741,0.0065,0.0762,-0.0879,0.0095,0.0717,0.0091,-0.1007,-0.042,0.0389,-0.0688,0.1043,-0.0848,-0.0065,0.061,0.031,-0.038,-0.0058,-0.0181,0.0394,-0.0093,-0.0806,-0.0666,0.0289,0.1206,-0.0246,-0.0617,0.0314,0.0333,-0.011,0.0388,-0.0004,-0.1038,0.0248,-0.0935,0.0715,-0.0193,0.0115,0.0756,-0.0612,-0.0203,-0.1053,0.0817,0.0069,-0.059,0.0209,0.1256,-0.1099,0.1105,0.0051,0.03,0.1548,0.0129,-0.1451,-0.0268,0.0142,0.0632,-0.0093,0.0315,0.0102,0.039,0.0046,-0.0183,0.0521,-0.0151,0.0351,0.0346,-0.0418,-0.0193,0.0117,0.0363,0.0399,0.1359,-0.0139,-0.1324,-0.1519,0.0274,0.0874,0.1329,-0.0745,0.0617,0.0792,-0.0789,-0.0202,-0.0624,-0.0051,0.0491,-0.0685,0.069,0.0988,0.0504,-0.0996,-0.0951,0.0531,0.0703,0.0366,0.0494,0.0774,0.0106,0.0192,-0.0019,0.0475,-0.0133,-0.0368,-0.0201,-0.0315,-0.0329,-0.0145,0.0024,-0.0222,-0.0295,-0.0417,-0.0632,0.055,0.0022,-0.1404,-0.0392,-0.0936,-0.0529,0.001,0.0532,0.0926,0.0787,0.0746,0.0224,-0.0028,-0.0941,-0.0481,-0.0177,0.0402,-0.02,0.0421,-0.0632,-0.1342,0.0115,0.0002,-0.0025,0.0066,0.0452,-0.0593,-0.0103,-0.0112,0.0095,0.0477,-0.0243,-0.0658,0.0627,0.0484,-0.1118,-0.0988,0.0333,0.0454,-0.0303,-0.0309,0.006,-0.008,-0.004,0.0159,0.0399,-0.0566,-0.0047,-0.0157,-0.0381,-0.0395,-0.0096,-0.0381,-0.0909,0.0368,0.0151,-0.0919,0.0562,-0.0202,0.0009,0.0177,0.0368,-0.0976,-0.0341,0.0082,-0.0393,-0.0363,-0.0371,0.0243,-0.0645,-0.0622,-0.0047,0.0508,-0.073,0.0642,0.011,0.0445,0.0632,0.0044,-0.0828,-0.0699,-0.0517,0.0192,-0.004,-0.0111,0.0347,0.0322,-0.045,-0.0866,0.0271,-0.0825,-0.0567,-0.0208,-0.0375,-0.0012,0.0419,0.0506,-0.1425,-0.1381,-0.0078,0.0287,-0.0971,0.021,0.0572,0.0052,-0.0549,0.005,-0.0067,-0.0293,-0.0239,-0.0068,0.0293,-0.0254,-0.0336,-0.0219,-0.0064,0.0264,-0.0201,0.0278,0.0384,-0.0009,-0.095,-0.0415,0.015,-0.0074,-0.0583,-0.036,0.0068,0.0184,-0.0219,-0.0211,-0.0131,0.0161,-0.0493,0.115,-0.0046,0.0138,0.0482,0.0402,0.0292,0.1152,0.086,0.0085,-0.1149,-0.0439,0.0092,0.0202,0.0056,0.0041,0.026,0.0034,0.0241,-0.032,-0.0014,0.0009,0.0353,0.0229,-0.0286,-0.0118,-0.0254,-0.0242,0.0061,0.042,-0.0143,-0.0086,0.0079,0.0619,-0.0713,0.026,-0.1041,0.0806,-0.0096,0.0166,0.0081,-0.0043,0.0125,0.0164,0.0252,-0.029,0.0382,0.0805,-0.0077,-0.0275,-0.1127,0.0152,0.0186,0.0312,-0.0676,0.0452,-0.0303,0.0164,0.0363,0.001,0.0179,0.0188,-0.0348,-0.0499,-0.0003,-0.0047,-0.0006,0.0086,-0.0144,-0.0076,0.0723,-0.0446,-0.0295,-0.0457,0.0121,0.0483,0.0025,-0.0291,0.0032,0.0057,0.0025,0.0029,0.0015,0.0072,-0.0007,0.0033,-0.0017,0.0055,0.0068,0.0045,0.0048,-0.0031,-0.0054,0.0053,0.0036,0.0013,0.0049,0.0048,0.0063,0.0016,0.0007,0.0019,0.0174,0.003,0.0027,0.0062,-0.0044,0.0018,-0.0323,0.0075,0.0283,0.0108,0.0009
0.0088,-0.0056,-0.0061,-0.0012,0.0023,0.0867,0.0461,-0.0177,0.0113,0.0873,0.0046,0.0256,0.0019,0.001,0.0115,0.0004,-0.0009,0.0228,-0.0009,0.0001,0.0109,-0.0265,-0.0397,0.0081,0.0009,-0.0319,-0.0161,-0.0113,0.0092,0.0139,0.0144,-0.0293,0.0215,0.0671,-0.044,0.0104,-0.0257,0.0087,-0.0017,-0.0319,0.0354,-0.0406,0.0494,-0.0369,-0.0021,0.0203,0.024,0.0393,-0.0083,0.0064,-0.0293,-0.0126,-0.0417,-0.0195,0.0017,0.0713,-0.0158,0.0469,-0.1061,0.0055,0.1034,-0.0306,0.029,-0.0624,0.1439,-0.06,-0.1011,0.0473,-0.0009,-0.0768,-0.0452,0.1566,-0.0521,-0.1063,0.0576,0.1367,-0.1829,-0.0686,0.0164,-0.0884,0.1197,-0.0217,-0.0625,0.0305,0.0656,0.1243,0.0126,-0.062,0.0252,-0.1769,-0.0576,0.0465,-0.0011,0.0442,-0.1195,0.0624,-0.093,0.0124,0.1345,0.0756,-0.0281,0.0306,-0.1888,-0.0719,0.0287,0.0478,0.0515,0.0098,-0.0282,-0.0724,-0.0401,-0.0156,0.0474,-0.0152,0.0281,-0.037,-0.0252,-0.0019,0.1535,-0.0152,0.0337,-0.0285,-0.0619,-0.0851,0.188,0.1694,-0.0311,-0.0452,0.0132,-0.0306,-0.0184,-0.0284,0.0069,0.1055,0.0659,0.0756,0.0536,0.0464,-0.0711,-0.1097,-0.0805,-0.01,0.0271,0.0307,0.0374,0.0004,0.1082,-0.0075,-0.0328,-0.0388,-0.0326,-0.0175,0.0216,0.0359,0.0374,0.0486,0.008,-0.0212,0.0357,-0.0379,0.002,0.0801,-0.0388,0.0307,0.1432,0.0271,0.0597,0.0395,0.1207,0.0198,0.0804,-0.1318,-0.1328,-0.0006,0.0063,-0.0229,-0.0008,-0.045,0.0756,-0.0486,-0.0684,-0.0317,-0.0223,0.0177,-0.0226,-0.1177,0.058,-0.0335,-0.0189,-0.0036,0.1089,0.0534,0.0646,0.05,0.0089,-0.0054,0.0619,0.0092,-0.0472,0.0848,0.0321,0.0148,-0.0562,0.0822,0.0653,-0.0068,-0.0559,0.0562,-0.012,-0.0336,-0.0218,0.0149,0.0173,-0.0079,-0.0638,0.0135,0.0458,-0.0455,-0.001,0.0513,-0.0349,0.1927,0.135,-0.0482,-0.0771,-0.0351,-0.0133,0.0029,-0.0195,0.0235,-0.0549,-0.0282,-0.056,0.0214,-0.0493,0.0099,0.0283,-0.0415,-0.0189,0.0033,-0.0249,0.1079,0.1436,-0.0099,0.0016,-0.0697,-0.0141,-0.0259,-0.0066,-0.0289,-0.0064,0.0148,-0.0178,0.0237,0.0033,0.0114,-0.0282,0.0094,-0.0108,-0.0003,0.0238,-0.0082,-0.0028,-0.0064,-0.001,-0.0088,-0.0191,-0.0102,0.0018,0.0004,0.02,0.015,0.028,-0.0315,-0.0355,-0.0359,0.0168,-0.0194,0.0347,-0.0078,0.0023,-0.0508,-0.0341,-0.0179,0.0242,0.0294,0.0274,-0.0492,-0.027,-0.0059,0.0149,0.0154,0.0063,0.0232,0.0044,0.0066,-0.0319,0.004,-0.0203,0.0065,0.0028,-0.0173,-0.0107,-0.0198,-0.0016,-0.0158,0.0202,0.0194,0.0115,0.0027,0.0088,-0.011,0.1339,-0.0419,-0.0809,0.0436,0.0047,-0.005,-0.011,0.0159,-0.0053,-0.0243,0.0187,0.0223,0.043,0.0092,-0.0366,-0.0469,-0.0028,0.0078,0.0205,-0.0485,0.0276,-0.0068,-0.0053,0.0026,-0.0342,0.0193,0.0252,-0.0087,-0.002,0.0004,-0.0031,0.0031,0.0013,-0.0071,-0.0117,0.0375,-0.0143,-0.0085,-0.026,0.0058,0.022,-0.0072,-0.0077,0.007,0.0044,0.0027,0.0027,0.0041,0.0039,0.0005,0.0001,0.0022,0.0052,0.0062,0.0058,-0.0009,0.0024,0.0007,0.0072,0.0032,0.0009,0.0043,0.0027,0.0031,0.0026,0.0013,0.0029,0.0019,0.0037,0.0039,0.0045,-0.0008,0.001,-0.032,0.0027,0.0234,0.0082,0.003
0.0085,-0.0316,-0.0137,-0.013,0.0496,0.0264,0.0173,0.0594,-0.134,0.0266,-0.0042,-0.101,-0.0524,0.0049,-0.0373,-0.0194,-0.0031,-0.057,-0.0479,0.0168,-0.0199,0.0141,-0.0095,-0.0538,0.0007,-0.0067,0.0105,0.0001,0.0003,-0.059,0.0943,0.0489,-0.049,-0.1469,0.0975,-0.0305,-0.0481,-0.008,0.1114,0.0143,-0.0144,0.0086,-0.0556,0.0269,-0.0602,-0.0618,-0.0804,-0.022,0.0267,-0.0298,-0.0035,-0.0138,0.0149,-0.0771,-0.0271,0.0441,-0.0012,-0.0738,0.1377,-0.048,-0.0371,-0.0617,-0.0021,0.0028,-0.0171,0.0077,0.0931,-0.1099,0.0017,0.1059,0.0437,-0.0249,0.031,0.0956,-0.1232,-0.0383,-0.0724,-0.0784,-0.0308,0.0541,-0.0401,-0.0058,-0.0643,0.0435,0.0372,-0.0454,0.0476,0.1182,-0.0928,-0.1062,0.0546,-0.019,-0.0007,-0.0879,-0.1032,-0.1237,0.1283,0.0634,-0.0305,-0.0179,-0.0529,-0.0134,-0.1059,-0.0528,0.0445,0.0091,0.0487,0.0244,-0.0429,-0.0802,-0.0554,0.04,-0.0336,0.0085,0.02,-0.0781,-0.0272,0.0065,0.0457,-0.0307,0.0064,-0.0068,-0.0799,-0.0887,0.1383,0.1346,-0.003,-0.0159,0.0164,0.0135,0.0197,-0.0017,0.0256,-0.023,0.0398,0.0167,-0.0138,-0.0532,0.0,0.0099,0.0091,0.0421,-0.0037,0.0525,-0.0533,0.0161,0.0388,-0.074,-0.068,-0.0331,0.0039,0.0335,0.0569,-0.0172,-0.0436,-0.0314,0.0081,0.0072,0.0175,-0.0245,0.0201,-0.0716,0.0089,0.0525,0.0496,0.0393,0.0344,0.0453,-0.0241,0.0268,-0.0486,0.0144,0.0128,0.024,0.0625,0.0286,-0.0019,0.0057,0.0168,-0.0201,-0.0573,-0.0087,0.0255,-0.0338,0.0204,0.0181,0.0406,0.0112,0.0079,0.0227,-0.0393,0.0117,-0.0079,-0.0244,0.0172,0.0177,0.0246,0.029,-0.0068,-0.002,-0.0456,0.0029,-0.0591,0.014,0.0124,0.021,-0.0721,0.0083,-0.0132,0.011,0.0231,0.0341,0.035,-0.0261,-0.0731,-0.0004,0.0341,-0.0252,-0.0229,0.032,-0.0056,0.147,0.0815,-0.0699,-0.0651,-0.0146,-0.0234,-0.0522,0.0234,-0.0181,0.189,0.0462,0.0116,0.0156,0.0704,0.0351,0.023,-0.0686,-0.0268,0.0035,-0.0044,0.0388,0.053,0.038,-0.0307,-0.0347,-0.0662,-0.031,0.0891,0.0322,-0.0101,0.0088,-0.0047,-0.0064,-0.0063,-0.0475,-0.0025,-0.0547,-0.0352,-0.0457,-0.0028,-0.0046,0.0301,-0.0025,-0.0007,0.0396,0.0183,0.034,-0.0709,0.0128,0.0436,-0.0505,-0.0358,0.0372,0.0632,0.0731,-0.0102,-0.0633,-0.0348,-0.0438,0.0146,0.1906,0.1218,0.08,-0.0024,-0.0206,-0.0224,0.0588,-0.0425,-0.0004,0.0243,-0.012,-0.0294,0.0083,0.014,0.0075,-0.0122,-0.0094,0.0614,-0.0096,0.0022,0.0082,-0.0148,-0.004,-0.0141,-0.0011,-0.0148,-0.0099,0.0139,-0.036,-0.0321,0.0973,-0.032,-0.02,0.0821,-0.0942,0.0088,-0.0186,0.1301,-0.0497,0.0317,0.1136,-0.1824,-0.0257,-0.0876,-0.0076,0.0857,0.0499,-0.0681,0.0256,0.0566,0.1231,-0.075,0.0099,0.0317,0.0182,0.1332,-0.1288,-0.0954,-0.0306,-0.0612,0.0742,-0.0185,-0.0266,-0.0569,0.0178,0.0581,-0.0312,0.0054,-0.007,0.065,-0.0317,0.0012,-0.0216,0.0391,0.0143,0.0052,0.0008,0.0002,-0.0043,0.0132,-0.0008,-0.0029,0.018,-0.001,0.0061,-0.0036,0.0043,-0.0027,-0.002,-0.0113,0.0025,-0.0033,-0.0066,-0.0001,-0.0087,-0.002,0.0024,-0.0086,0.0183,-0.0046,-0.0026,-0.0069,-0.0026,0.0025,-0.0122,-0.0016,-0.0004,-0.0056,-0.0044
0.0082,-0.0333,0.0199,0.0165,-0.021,-0.0153,-0.0107,-0.0521,0.0946,-0.0162,0.0042,-0.0292,0.0023,0.001,0.0197,0.0047,0.0071,0.0068,0.0085,-0.0044,0.0056,-0.0003,0.0224,0.0255,-0.0015,0.0143,-0.0018,0.0036,-0.0033,0.0218,-0.0772,0.0115,0.0295,0.0775,-0.0392,0.0192,-0.0299,0.0002,0.0053,-0.0153,0.0146,-0.0106,-0.0121,-0.0236,0.0373,0.0392,-0.0263,0.0199,0.0577,-0.0141,-0.0504,0.0072,-0.0085,0.0353,0.0129,-0.0154,-0.0135,-0.0627,0.0714,0.0053,-0.0319,-0.0178,-0.0059,-0.0062,-0.0579,-0.0123,-0.0054,0.0245,0.0527,-0.0438,-0.0016,-0.049,0.0137,-0.0126,-0.1058,-0.0534,0.0833,-0.0854,-0.0298,0.0639,-0.0594,-0.0523,-0.0934,0.0555,0.0926,-0.0647,0.005,-0.0128,-0.0994,0.0669,-0.0901,-0.0058,0.0082,-0.04,0.0686,-0.0926,0.0202,0.0139,-0.0618,-0.031,0.033,0.0012,0.0733,-0.0942,0.0433,0.0645,0.0798,0.0037,-0.0505,-0.0878,0.0082,0.015,0.0182,-0.0359,0.0419,-0.0186,-0.0481,-0.0533,-0.0817,-0.0805,-0.0042,-0.0241,-0.1406,-0.1641,0.253,0.2429,-0.0231,-0.0163,-0.0294,0.0199,-0.0115,0.0371,0.0582,-0.0947,-0.0133,-0.0397,-0.0744,-0.105,0.0452,0.1136,0.0866,0.0405,0.0203,0.1018,-0.0178,-0.0262,-0.0247,0.0077,0.0069,0.0028,0.0,0.0062,0.0332,0.0276,0.0087,0.0089,-0.0227,-0.0354,0.024,-0.0589,-0.0189,0.0604,-0.0359,0.1018,-0.0861,-0.0505,-0.0504,-0.0466,-0.0893,0.047,-0.1346,0.1168,0.1164,0.0279,0.0137,-0.0199,-0.0086,-0.0556,0.0236,0.1116,0.0751,-0.0213,0.0545,-0.0661,0.0218,0.1148,-0.0555,-0.0006,0.0397,0.0567,-0.1396,-0.0177,-0.0635,-0.0797,-0.0018,-0.0061,-0.0502,0.031,-0.0326,0.0444,0.0661,0.0579,0.0246,0.0632,0.0364,-0.0653,0.067,0.0633,-0.1337,-0.032,0.0309,0.0093,0.0424,0.0542,0.0487,-0.0236,0.0228,-0.0167,-0.0264,0.0045,-0.0115,0.2507,0.1417,-0.1253,-0.1133,-0.0375,-0.0006,0.0216,0.0024,0.0148,-0.1215,-0.0052,-0.0077,-0.024,0.0154,0.0433,0.0452,-0.0266,-0.0501,-0.0569,-0.0241,-0.0241,-0.0838,-0.0173,0.0172,-0.0089,0.0018,-0.0277,-0.0392,0.0197,-0.0049,0.005,0.0063,-0.0394,0.0031,0.014,0.0181,0.0245,0.0235,0.0294,-0.014,0.0038,-0.0325,-0.0344,-0.0019,0.0087,0.0162,-0.0173,0.0532,-0.0199,-0.0068,0.0321,0.0398,-0.0154,-0.0299,-0.0413,-0.0025,0.0612,-0.0098,0.0165,-0.0161,-0.1282,-0.0909,-0.0527,-0.0168,-0.0172,-0.0131,0.0319,0.0071,0.0008,-0.0176,0.0037,0.0075,-0.014,-0.0047,-0.0168,0.0281,0.0139,-0.0344,-0.0272,0.0085,0.0085,0.006,0.0013,0.0208,-0.0035,0.0024,0.0,-0.0045,0.0259,-0.0307,-0.0034,-0.0282,0.0012,-0.0007,0.0231,0.0357,-0.0034,-0.0758,0.021,-0.0313,-0.0839,0.1338,0.0167,0.0373,0.0065,-0.0345,-0.0337,0.0157,-0.0192,-0.0243,-0.0703,0.0348,-0.0074,-0.0313,-0.0246,-0.0885,0.0811,0.0695,0.0261,0.0574,-0.0246,-0.0001,0.0157,0.0176,-0.0085,-0.0283,0.0045,0.013,0.0038,-0.0316,0.0224,-0.0187,0.0118,-0.0046,-0.0063,-0.0025,-0.0018,0.0019,-0.0014,-0.0121,0.0033,0.0028,-0.0074,-0.0015,-0.0086,0.0013,-0.005,0.0032,0.0026,0.0016,-0.0021,-0.0012,0.0024,-0.0015,0.0007,0.0001,0.005,0.0037,-0.019,0.0022,0.0014,-0.0009,0.0015,-0.0006,0.0265,-0.0033,-0.0085,0.0007,0.001
0.0079,-0.0619,0.0517,0.0256,-0.02,0.1272,0.0807,-0.1216,0.1192,0.1293,0.0339,-0.0987,-0.0569,-0.016,-0.0004,0.0227,0.023,-0.0529,0.0119,0.0079,-0.0269,0.04,0.12,0.0793,-0.0046,0.1124,0.0385,0.0436,-0.0378,0.0168,-0.1655,0.0056,0.0197,-0.0118,0.0085,0.0215,0.0227,-0.0583,-0.0255,-0.0323,0.0048,-0.0573,-0.0021,0.0917,0.0499,-0.1003,-0.0628,-0.0622,-0.0762,0.0631,0.0553,0.0458,0.0693,-0.1662,-0.1131,0.1174,0.039,0.0138,0.0605,-0.0585,-0.0275,-0.0425,-0.0037,0.0046,-0.0407,-0.0064,0.0706,-0.0586,0.0295,-0.0021,0.088,-0.0567,0.0184,0.0813,0.0009,-0.049,-0.0021,0.0039,0.0255,-0.0044,-0.0343,0.085,-0.0095,-0.0259,-0.049,-0.0427,-0.0149,0.0613,0.0006,-0.0186,0.0073,-0.0449,0.0254,-0.0232,-0.0396,-0.0087,0.0703,-0.0028,-0.0425,-0.0069,-0.0054,-0.0232,-0.0255,0.0514,-0.0163,-0.0466,0.0041,-0.0024,0.0,0.002,-0.0626,0.0483,0.0044,-0.0346,-0.0033,-0.1413,-0.0294,0.0659,0.0674,-0.0171,0.027,0.0508,0.054,0.0609,-0.028,-0.0402,-0.027,-0.0316,0.0213,-0.0059,0.0413,-0.046,-0.0373,0.0208,0.0366,0.0332,0.0324,0.0067,-0.0096,-0.0254,-0.0211,0.0264,0.0169,0.0369,-0.0478,0.0066,-0.0021,-0.0644,-0.0748,-0.0431,0.0031,0.0398,0.0798,0.0209,-0.0145,-0.0067,-0.0047,-0.0405,0.0361,-0.0397,0.0186,-0.071,0.0117,0.0369,0.0635,0.0944,0.0961,0.0852,-0.0037,-0.027,0.0336,-0.0303,-0.0314,0.0209,0.0701,0.0108,-0.0211,0.0331,-0.0287,-0.039,-0.06,-0.0349,-0.0303,0.0075,0.0128,-0.0211,0.0988,0.0102,-0.0409,-0.0315,0.051,0.0211,0.0263,0.0239,0.0247,0.0093,0.0563,0.0275,0.0043,-0.0007,-0.0556,-0.0001,-0.038,-0.069,-0.0451,0.0371,-0.0788,-0.0602,0.0491,0.0174,0.0081,0.0735,-0.0124,-0.0143,-0.0626,0.0199,0.0021,-0.0197,0.028,0.0422,-0.0468,-0.0109,0.0276,0.0518,0.0237,-0.0375,-0.061,-0.0187,-0.0074,0.0247,-0.0633,0.0566,0.035,-0.0714,0.0317,0.0694,-0.0026,-0.1191,-0.0214,0.0625,0.0558,-0.0023,0.0654,0.0302,-0.0497,-0.0914,-0.0401,-0.035,0.029,0.0305,-0.0094,-0.0151,0.0441,-0.0331,-0.0107,0.0099,0.0401,0.0438,0.0792,0.0384,-0.0062,0.0692,-0.0336,0.0306,0.0032,-0.0114,-0.0186,0.0419,0.0635,-0.014,-0.0565,0.0318,0.0026,0.0414,0.01,-0.0246,0.0179,0.1439,0.0272,0.0571,-0.0543,-0.0586,-0.0454,-0.0374,0.0449,0.014,-0.0288,0.0188,-0.0555,-0.0016,-0.0539,-0.0085,0.0295,-0.1045,-0.0267,-0.0515,0.1218,-0.0044,-0.0181,0.0373,0.0076,0.0197,0.0275,0.0358,-0.0109,-0.0266,0.0284,-0.0073,-0.0607,0.0268,0.0346,-0.0609,-0.0396,-0.0007,0.0678,-0.0545,0.0282,0.0007,-0.065,0.0067,-0.0997,-0.151,0.1977,-0.0376,-0.034,0.0312,-0.0173,0.0923,0.0098,0.023,-0.098,-0.0107,-0.0148,0.0248,-0.0997,-0.1051,-0.1055,0.1013,0.0261,0.1133,0.1111,-0.006,-0.0167,0.0203,0.0191,-0.0077,-0.014,0.0385,-0.0266,0.0895,0.0454,-0.0218,-0.1087,0.0682,-0.0124,-0.0285,-0.022,-0.0079,-0.0026,0.0068,-0.0325,0.0002,0.0021,-0.0174,-0.0144,-0.0266,-0.0128,-0.0088,0.0003,-0.0053,0.0057,-0.0116,-0.0019,-0.0004,-0.0021,0.0022,-0.0047,0.009,0.0085,-0.0303,0.0017,-0.0063,-0.0222,-0.001,-0.0077,0.1296,-0.0238,-0.0883,-0.0076,0.0019
0.0077,-0.0242,0.0086,0.0031,0.0122,0.1493,0.063,0.0045,0.0055,0.1492,0.0015,-0.0812,-0.0108,0.0055,-0.0226,-0.0133,-0.0011,-0.0195,-0.0171,0.0036,-0.0243,0.0033,0.0093,-0.0071,-0.0026,-0.0015,-0.0012,-0.0017,0.0012,0.0087,-0.0089,0.0129,-0.0053,-0.0106,0.0116,-0.0091,-0.0655,0.0145,0.0668,0.0252,0.0248,-0.009,-0.0285,-0.0185,-0.0011,0.0035,-0.0539,-0.002,0.0212,0.0092,-0.0483,-0.0034,-0.0124,-0.1197,-0.0456,0.1411,-0.0016,0.0002,-0.0358,0.0181,0.037,0.0014,-0.0139,-0.0656,0.0461,0.0225,-0.0468,-0.0247,0.0074,-0.07,0.0417,0.0453,0.0392,-0.0535,-0.0247,0.0384,-0.0037,-0.0458,0.022,-0.0398,0.0291,-0.0225,-0.0833,0.0228,0.0808,0.0494,-0.0211,-0.0267,-0.0217,-0.0206,-0.0367,0.0211,0.0149,0.0012,-0.0134,-0.0189,-0.0368,-0.0195,0.0491,0.0307,-0.0021,0.0089,-0.0218,-0.0627,-0.0283,0.0897,0.1012,-0.064,-0.0436,-0.0451,-0.0381,0.0441,0.0417,-0.0601,0.0534,-0.1491,-0.0531,0.0206,-0.026,-0.0826,0.0233,-0.0095,-0.1255,-0.0837,-0.2428,-0.1469,0.2114,0.2001,-0.0424,-0.003,-0.0285,0.0171,0.0532,0.0107,0.0005,-0.0036,-0.0326,-0.0276,-0.0079,-0.0182,-0.0184,-0.0179,0.0003,0.0232,-0.0298,-0.0126,-0.0392,-0.0091,-0.0386,-0.0356,-0.0108,0.0314,0.0975,0.0595,0.0276,0.0099,-0.0159,-0.068,0.026,-0.0448,-0.0176,0.0309,-0.0013,0.0232,-0.0365,-0.0567,-0.04,-0.051,0.0475,0.0655,-0.0513,-0.0361,-0.0355,-0.0215,0.0685,-0.0025,-0.0568,-0.0054,0.0392,0.0337,0.1006,0.2381,0.0446,-0.0124,-0.0186,-0.0228,-0.0431,-0.0138,0.0335,0.0567,-0.0421,0.0058,-0.0266,-0.0301,0.0134,0.0034,-0.0492,0.0362,-0.0001,0.0133,0.0504,-0.0134,0.0697,0.077,0.048,-0.0344,0.0845,0.072,-0.0924,-0.0316,-0.0274,-0.0154,-0.0027,0.0032,0.0862,-0.0224,0.0254,-0.0252,0.0207,0.0252,0.2641,-0.2573,-0.329,-0.122,0.0055,-0.0203,0.0465,-0.0114,0.0444,-0.0296,-0.0383,0.0056,-0.0436,-0.01,0.048,0.0297,0.0567,-0.1357,-0.0515,0.0135,-0.006,-0.0394,-0.0346,0.0003,0.0437,-0.0418,-0.0493,-0.093,0.031,0.0018,-0.0093,0.0116,-0.0068,0.0116,0.0238,-0.0281,-0.03,0.0137,-0.0125,-0.002,0.0309,-0.0013,0.0071,-0.0112,-0.0001,0.0037,0.0017,0.0119,0.0035,-0.0384,0.0473,-0.0035,-0.0289,0.0049,0.0098,0.0094,-0.0191,0.0121,0.0088,-0.0239,-0.0045,-0.0338,-0.0329,-0.0234,0.0027,-0.0066,-0.0369,0.0573,-0.042,-0.0003,0.0024,-0.004,-0.0162,-0.0002,0.0065,-0.0109,0.0126,-0.0113,-0.0007,-0.0012,0.0038,-0.0058,-0.0099,-0.0226,-0.0052,-0.0059,0.0162,0.024,0.003,-0.0304,-0.0281,0.0645,0.0434,0.0318,-0.0404,-0.0256,0.0047,-0.0249,0.0153,-0.0166,-0.0042,0.0108,0.0009,0.031,-0.0303,-0.0084,0.0014,-0.0042,-0.0395,-0.0045,0.0383,-0.0064,-0.0129,-0.0094,-0.0042,0.0023,0.0121,-0.0068,0.0083,-0.0021,0.0052,0.0081,0.0154,-0.0075,-0.0351,0.0027,0.0215,0.0078,0.0003,-0.0108,0.0008,-0.0077,0.0152,-0.0211,0.0251,0.0065,0.0037,-0.0011,0.0005,-0.0055,-0.0028,0.0014,-0.0018,0.005,-0.001,-0.0018,0.0016,-0.0047,-0.0018,0.0008,-0.004,-0.0011,-0.0018,-0.0039,0.0003,-0.0033,-0.0014,0.0076,-0.0031,-0.0081,0.0027,-0.0009,-0.0026,0.0023,0.0004,0.0095,-0.0032,-0.0007,-0.0082,-0.0011
0.0074,0.0598,0.0816,0.0229,-0.068,-0.0332,-0.0179,0.1335,0.1434,-0.0323,0.0047,0.049,-0.0145,0.0171,0.0063,0.0093,0.0067,0.0105,0.0411,0.0087,-0.006,0.0857,0.182,0.0091,-0.0024,0.098,0.0376,0.0378,-0.0329,-0.0435,-0.1493,0.0136,0.0179,-0.0616,0.017,0.0045,0.0196,0.028,-0.0013,0.0329,-0.0242,0.0424,-0.0015,-0.0016,0.074,-0.0319,0.0171,0.0455,0.0877,-0.0361,-0.0954,-0.0424,-0.031,0.0133,0.0442,-0.0053,-0.0037,-0.0331,-0.0042,0.0514,-0.0277,0.0312,-0.0011,-0.0245,0.0138,-0.0211,-0.0618,0.0714,0.0085,0.1168,-0.0361,0.0027,-0.0248,-0.0661,-0.0112,-0.0239,-0.0299,-0.0106,-0.0539,0.0654,-0.0143,-0.0956,0.01,0.0085,0.0317,-0.0206,0.0473,-0.0164,-0.0313,-0.0267,0.0668,0.0233,-0.0132,0.0162,-0.0108,-0.0077,-0.024,0.0602,-0.0203,-0.0235,-0.0213,0.0214,-0.0196,-0.0439,0.0229,0.0273,-0.0116,0.0116,0.003,-0.0073,-0.0008,-0.0328,0.0183,0.0165,0.0079,0.0387,0.0152,-0.0041,0.0106,0.0556,0.0018,-0.022,-0.0226,-0.0184,-0.0241,-0.0119,0.0292,0.0243,0.0581,-0.0143,-0.044,0.0159,0.0511,0.0297,-0.0012,-0.0069,-0.0093,0.005,-0.0256,-0.0227,-0.022,-0.0181,-0.013,-0.0351,0.0703,-0.0146,0.0108,-0.0016,0.0005,0.0034,-0.0065,-0.0287,-0.0416,-0.0071,0.0302,0.0293,0.0204,0.0131,-0.0105,0.0033,0.0347,0.0707,-0.0573,-0.0351,0.0087,-0.0624,-0.0572,-0.0512,0.0433,0.0294,-0.0025,-0.0218,-0.0228,-0.0053,-0.0392,0.0016,0.0295,-0.0714,0.0473,-0.0838,-0.1226,0.025,0.0209,-0.0031,-0.0188,-0.0199,-0.0568,-0.0309,0.0265,0.0372,-0.0113,0.003,-0.0075,-0.003,-0.0054,0.0092,-0.0345,-0.0396,-0.0638,0.0665,-0.0043,0.0078,-0.1006,0.0696,0.0535,0.0056,-0.1158,0.0476,0.0327,-0.0072,-0.0067,-0.025,0.0517,-0.0497,-0.1202,-0.0147,0.0612,-0.0338,-0.0469,0.02,0.0416,-0.0294,-0.0458,-0.024,-0.0093,-0.019,0.0111,0.0794,0.0223,-0.0328,0.2033,0.0084,-0.0154,-0.1022,-0.0197,-0.0658,0.0071,0.0318,0.0146,0.0001,-0.0212,0.0094,0.0067,-0.0402,-0.0208,0.0285,-0.0038,-0.0237,0.006,-0.0006,-0.004,0.034,-0.0,-0.0285,0.0205,-0.0141,0.0421,0.025,0.0235,0.0402,-0.0148,0.013,0.0161,-0.0023,0.0071,0.0364,0.0861,0.0102,0.1357,0.0306,-0.0399,-0.0004,-0.0603,0.0575,0.0508,0.0459,-0.1601,0.1907,-0.0281,-0.0133,-0.0016,0.2129,0.1669,0.1205,-0.0151,0.0106,0.0519,-0.0536,0.0082,0.0019,-0.0274,-0.0672,-0.0491,-0.1197,-0.0372,-0.048,0.1476,0.0042,0.0575,-0.0107,-0.0307,-0.0122,0.0027,-0.0181,0.0171,0.0807,0.0007,-0.0309,-0.0353,-0.0058,-0.041,0.0097,-0.0033,-0.0353,-0.0503,0.0715,0.0081,0.033,-0.1602,-0.0592,0.0212,0.1144,0.1447,-0.0049,0.0051,-0.0124,-0.0027,0.0108,0.0817,-0.1445,-0.0125,-0.0888,-0.0166,-0.0662,0.0212,0.0584,0.0987,0.0668,0.087,0.0442,0.0527,-0.0996,0.0636,0.0162,-0.029,-0.0311,-0.045,-0.0322,0.1057,-0.0099,0.0652,0.0155,-0.0189,-0.0723,0.0486,-0.0231,-0.0191,-0.0106,-0.0178,-0.0185,-0.0274,0.0013,-0.0102,-0.0247,-0.0184,-0.0317,-0.039,-0.0068,-0.0124,-0.0097,-0.0303,-0.0104,0.0021,-0.0199,-0.0011,-0.0177,-0.0097,-0.0086,-0.0098,-0.0154,-0.0093,-0.0147,-0.0143,0.0034,-0.0157,0.1442,-0.011,-0.0894,-0.0366,-0.0129
0.0072,-0.0441,0.0021,-0.0402,-0.0649,0.0789,0.0392,0.0739,0.0007,0.0824,0.0018,-0.0283,-0.0041,0.0165,0.0745,0.0069,0.0208,0.0472,0.0636,0.0229,0.0085,0.0175,0.0323,-0.0106,0.0015,0.0315,0.0167,0.0115,-0.0097,-0.046,0.0023,-0.0014,0.0374,0.0624,-0.0551,0.028,0.0321,-0.0164,-0.0577,0.0638,0.0005,0.0311,-0.0267,-0.015,0.0341,-0.0199,-0.0108,-0.003,-0.0499,-0.0117,0.048,-0.0048,-0.0224,-0.0728,-0.0056,0.0657,0.0047,0.0648,-0.0817,-0.0249,0.0727,-0.0079,-0.0043,-0.025,0.066,0.0061,0.0091,-0.0706,-0.0236,0.0263,0.0265,0.0911,-0.0218,0.0225,0.0756,0.1407,-0.0486,0.0323,0.0518,-0.1053,0.0815,0.044,0.0425,-0.0196,-0.0339,0.1149,-0.0025,-0.0328,0.079,-0.0488,0.0657,0.0119,-0.0343,0.0128,-0.0727,0.0689,-0.0337,-0.0238,0.1363,0.079,-0.0371,-0.0415,-0.0479,0.0253,-0.0147,-0.0241,-0.0427,0.0165,0.0129,0.0336,0.0536,0.0462,-0.0658,0.0013,-0.0025,-0.0695,-0.0022,0.0267,0.0657,0.0058,-0.0068,-0.0009,-0.0004,-0.0148,0.0647,0.0512,-0.0232,-0.0186,-0.0724,-0.0243,-0.0701,0.0174,0.1101,-0.0226,0.0644,0.0345,-0.076,-0.1451,0.0467,0.0558,0.0637,0.0588,-0.0065,0.0092,-0.1062,-0.0225,0.047,0.0317,0.0559,0.0428,0.0489,0.0439,0.005,-0.0318,-0.0639,-0.0722,-0.034,0.0123,-0.0029,0.0889,-0.0318,-0.1613,0.0211,0.0092,0.0754,-0.0607,-0.0227,-0.0522,-0.0417,0.1185,-0.1773,0.0845,0.0845,0.0294,0.0284,0.0486,-0.0112,0.0473,-0.0811,0.0522,0.135,-0.0202,0.0768,-0.0998,0.0469,0.0712,-0.0292,-0.0286,0.0299,0.1117,-0.1306,0.035,-0.0261,-0.1058,0.0241,-0.0002,-0.0211,0.0396,0.0506,-0.1455,-0.0387,-0.0607,0.1308,-0.1118,-0.076,0.0176,0.1267,-0.0954,0.0507,0.0354,0.0183,0.0081,-0.0892,0.0032,0.1431,0.0169,-0.1116,0.0798,0.0571,-0.0342,-0.0403,0.0605,0.0611,0.0063,-0.0031,0.0999,0.0118,0.0829,0.0537,-0.0581,0.1174,0.0063,-0.0226,-0.0072,0.0341,0.0535,-0.0032,-0.0548,-0.0037,0.0236,-0.0008,0.048,0.0783,-0.0408,-0.019,-0.0015,0.0205,0.0348,-0.0712,-0.0399,-0.0037,0.028,0.0045,0.0183,0.0184,0.0142,0.0174,0.0454,0.032,0.0557,0.0167,0.0193,-0.0022,0.0251,0.0016,-0.011,-0.0236,0.0138,0.0421,0.0036,-0.0885,-0.0039,-0.0538,0.0043,-0.0068,-0.0087,-0.0145,0.0142,-0.0065,0.0174,-0.0162,0.128,0.0915,0.0394,-0.0059,-0.0212,-0.0374,0.0511,0.0077,-0.0028,-0.0065,-0.0149,0.0055,-0.0271,-0.011,-0.0048,0.0241,-0.0358,0.019,0.0442,-0.0174,-0.025,0.0056,-0.0043,-0.0327,0.0684,-0.0127,0.0084,-0.002,0.0107,0.0611,-0.1172,0.0595,-0.0099,0.0065,-0.0673,-0.0058,0.0841,-0.0949,0.0689,0.0366,0.0621,-0.0281,0.0341,0.0108,-0.0235,-0.0269,-0.0167,0.1389,-0.0491,-0.0472,-0.0682,0.0662,0.0262,0.0366,0.0473,0.0397,0.0153,-0.0045,-0.0224,-0.0486,-0.0978,0.0267,0.0316,0.0128,-0.022,0.0024,-0.0076,0.0084,-0.0196,0.025,-0.0008,0.0384,-0.0198,-0.0291,-0.0066,-0.003,-0.0051,-0.0074,-0.0008,0.0054,-0.0018,-0.001,-0.0077,-0.0021,-0.0021,-0.0063,-0.0024,-0.003,-0.0013,-0.0069,-0.0006,0.0018,-0.0021,-0.0077,0.0016,-0.0042,-0.0002,-0.0008,-0.0026,-0.0101,-0.0059,0.0033,0.0044,-0.0046,0.0277,0.0036,-0.0293,-0.0007,-0.001
0.0069,-0.0003,0.0765,0.0881,0.1075,0.0514,0.0215,0.1246,0.0921,0.0529,-0.0075,0.0325,0.0344,-0.0344,-0.0793,-0.0232,-0.0354,-0.0825,-0.0922,-0.038,-0.0083,0.0678,0.1083,-0.0374,0.0009,0.0383,0.0107,0.015,-0.0144,0.0349,-0.0677,-0.0206,-0.0405,-0.0763,0.05,-0.0447,-0.0649,0.0165,0.1249,0.0093,0.0159,-0.0066,0.0132,-0.0067,-0.0039,0.0472,0.0327,-0.0093,-0.0505,0.0232,0.0364,0.0088,-0.0126,-0.0274,-0.0017,0.0415,-0.0092,0.0521,-0.0613,-0.0036,0.0233,0.0093,-0.0055,-0.0314,0.0256,0.019,-0.0243,-0.0101,-0.0111,-0.0912,-0.0157,0.027,-0.0008,-0.0174,0.0824,0.0413,0.0036,0.0479,0.0288,-0.0489,0.0303,0.0507,0.0465,-0.0231,-0.0368,0.0419,-0.0154,-0.0309,0.0716,0.0183,-0.0279,0.0016,-0.0086,0.0305,-0.003,0.0712,-0.0384,-0.0233,0.0393,0.0246,-0.0061,-0.0197,0.0169,0.0461,-0.016,-0.0349,-0.0493,0.0084,0.0274,0.0476,0.0345,-0.0167,0.0065,-0.0005,-0.0286,-0.004,0.0251,0.0373,-0.01,0.0303,0.0032,0.0282,-0.0393,-0.0397,0.1023,0.0873,-0.0371,-0.0234,-0.0192,0.0527,0.0648,0.0167,-0.0504,-0.071,-0.0246,-0.0362,-0.0018,0.0023,0.0318,0.0296,0.0349,-0.0047,-0.0039,-0.0625,-0.0093,0.0008,-0.0386,0.03,0.0394,0.0251,0.0113,-0.0124,-0.0407,-0.0026,0.0116,0.002,-0.0041,0.0006,-0.0031,0.0335,-0.0126,-0.0435,0.0363,-0.0625,-0.0148,0.068,0.0413,0.0537,-0.0704,-0.0412,-0.0032,0.049,0.0503,-0.0059,-0.0001,-0.0147,-0.0198,0.0628,-0.0088,-0.0213,0.0564,-0.0328,-0.0004,0.0048,0.0192,0.0331,0.044,0.0548,-0.0065,-0.0438,-0.0192,-0.0324,-0.0079,-0.0026,0.0078,-0.0082,0.0311,-0.0018,0.0513,-0.0612,-0.0142,-0.0401,0.0684,-0.0423,-0.0207,0.0185,0.0689,-0.0516,0.0495,0.0032,-0.008,-0.0229,-0.0612,-0.0335,0.0767,0.0026,-0.0804,0.0598,0.0392,-0.007,-0.0391,0.0952,0.062,-0.0359,-0.0178,0.0253,0.0319,-0.1499,-0.0039,-0.0069,-0.1038,-0.0245,-0.0221,-0.0556,-0.0096,0.0037,-0.0298,0.0075,0.0248,0.036,0.0272,-0.0389,-0.0167,0.0716,0.0118,0.0117,-0.0032,-0.0246,0.125,-0.013,0.0095,-0.0364,-0.0501,0.0058,-0.0028,-0.04,-0.1153,-0.1009,-0.12,-0.1214,0.0547,-0.0801,0.0666,0.0123,-0.001,-0.0313,0.0043,0.0137,0.0557,0.0007,0.1803,-0.012,-0.0264,0.0389,0.0494,0.0521,-0.1851,0.0902,0.0212,-0.0723,0.0473,-0.1041,-0.0778,-0.0606,0.0177,0.0209,-0.0272,-0.0034,0.0078,-0.0004,-0.0282,-0.0552,-0.074,-0.0407,-0.0018,-0.0153,0.1248,-0.0141,0.0169,0.0301,0.0067,0.016,-0.0165,-0.0463,-0.0038,0.0547,-0.0117,0.0107,-0.0357,-0.0315,-0.0524,0.1567,0.0382,0.0332,-0.0325,-0.0134,-0.0027,-0.1304,0.0247,-0.2178,0.0672,0.0949,0.1113,-0.0116,0.0325,-0.0097,-0.0041,-0.0106,-0.2199,-0.0435,0.1233,0.0041,-0.1321,-0.1654,0.0672,0.0656,0.0667,0.045,0.0871,0.0399,0.0522,0.1195,0.0084,-0.0449,-0.0125,-0.0419,0.0492,0.0019,-0.0056,-0.0516,-0.0412,0.0368,0.0322,-0.0428,0.0276,0.0023,-0.0018,-0.0022,-0.01,-0.0322,-0.0156,0.0022,-0.0103,-0.0118,-0.0086,-0.0207,-0.0221,-0.002,-0.011,-0.0009,-0.0321,-0.0009,0.0022,-0.023,0.0024,-0.0253,-0.0051,-0.0049,-0.0112,-0.005,-0.0063,-0.0061,-0.0049,0.0114,-0.0082,0.1071,0.0055,-0.0312,-0.0398,-0.0156
0.0069,-0.022,-0.0141,-0.0408,-0.0748,-0.011,-0.0122,0.1042,-0.0067,-0.0104,-0.0055,-0.047,0.0132,0.031,0.0079,-0.0011,0.0167,0.0466,0.0512,0.0267,-0.0104,0.0166,0.0302,-0.0149,0.0038,0.0191,0.0088,0.0067,-0.005,-0.0226,-0.0009,0.0035,0.0188,0.0319,-0.016,0.0122,-0.0049,0.0021,-0.0035,0.0111,0.0004,0.0074,-0.0209,-0.0412,0.0406,0.0186,-0.0295,-0.0223,-0.0067,-0.0153,0.0377,0.0077,-0.0081,0.0178,0.0002,-0.0189,-0.003,-0.0045,-0.0253,0.0062,0.044,-0.0062,-0.0208,0.0207,0.0029,-0.0017,0.0617,-0.0506,-0.0262,0.0302,0.0321,0.0157,-0.0104,0.0689,-0.0262,0.0615,0.0617,-0.0258,0.022,-0.0403,0.0278,0.0219,-0.0581,0.0118,0.0283,0.0437,-0.0302,-0.0409,0.005,0.0505,0.0105,0.0168,-0.0024,-0.0173,0.0394,-0.0216,-0.0303,-0.056,0.0603,0.0273,0.0282,-0.0152,0.05,-0.0206,-0.0237,0.0428,0.0693,-0.0453,-0.0277,-0.024,-0.0201,0.0012,-0.0474,0.041,-0.0077,-0.0035,-0.0056,-0.013,-0.1182,-0.0256,-0.003,0.0026,-0.121,-0.0901,0.0621,0.0807,0.0265,0.0257,-0.0573,0.1343,0.2255,0.0102,-0.2128,-0.0867,-0.077,-0.0598,0.0826,0.1305,-0.0096,-0.0604,-0.0703,-0.0675,-0.0124,0.0555,-0.0547,-0.0114,-0.0828,-0.0104,-0.0195,-0.0199,-0.0119,0.0049,0.0071,-0.0338,-0.0528,-0.0353,0.0197,0.0432,-0.031,0.0491,-0.0385,-0.0659,0.0094,0.0555,-0.1252,0.2405,0.1438,0.2029,-0.039,-0.1657,0.1706,-0.0749,-0.0732,-0.0563,0.0518,0.0504,-0.0265,0.0192,0.0366,0.0418,0.0517,0.0263,-0.0667,0.0946,-0.0197,-0.066,0.1678,0.1659,-0.051,-0.1825,0.1113,-0.0743,0.0282,0.0981,-0.0321,-0.0152,0.0807,-0.0035,0.0158,-0.0618,-0.0103,-0.0045,0.0228,0.0491,0.0298,-0.0079,0.0383,0.0442,-0.0894,-0.0048,-0.0163,-0.0268,-0.0188,0.0212,0.0349,-0.0094,-0.0105,0.0099,-0.0067,-0.0422,0.0476,0.0543,-0.0336,-0.1175,-0.0288,0.0645,0.0184,0.1014,0.0124,-0.0027,0.0378,-0.0019,0.0026,-0.0078,0.0365,0.0276,-0.0059,0.0024,-0.0101,-0.0187,0.0014,-0.0833,-0.1247,-0.0559,0.0352,0.0201,0.0284,-0.0513,-0.0618,-0.0204,-0.0111,0.0393,-0.0015,-0.0005,0.0343,0.023,0.061,0.0664,0.0445,0.0715,0.0001,0.0253,-0.0104,-0.0012,-0.0011,-0.025,-0.0167,0.0116,0.0421,-0.0255,-0.0855,-0.0056,0.0227,-0.0,0.0016,0.0105,-0.0336,0.0164,0.0081,0.0069,-0.0161,0.0365,0.0173,0.0084,-0.0129,-0.0385,-0.0306,0.0657,-0.0018,0.0051,0.0021,-0.0182,-0.0182,-0.0164,-0.0005,-0.0091,0.0272,-0.0092,0.0243,0.0142,0.0031,-0.0232,0.009,-0.0015,-0.0229,0.0613,-0.0238,-0.0085,-0.0016,0.0204,0.0135,-0.0786,-0.0019,-0.0139,0.0604,-0.0476,-0.0222,0.0887,-0.0921,0.0396,0.0742,0.0849,-0.0401,0.0079,0.0119,-0.0118,0.0182,-0.0392,0.1411,-0.0772,-0.0382,-0.0431,0.0421,0.0103,0.0742,0.062,0.0568,-0.0124,-0.0024,-0.0306,-0.0389,-0.1067,0.0392,0.0291,-0.0237,0.0011,0.0167,-0.0235,0.0197,-0.0214,-0.0037,-0.0037,0.0512,-0.0522,0.0121,0.0013,-0.0002,-0.0028,-0.0057,-0.0107,0.0035,-0.0005,-0.0024,0.0036,-0.0021,-0.002,-0.0045,-0.0019,-0.0034,-0.001,-0.013,0.0016,0.0018,-0.0056,-0.0042,-0.0059,-0.0024,0.0002,-0.0036,-0.0045,-0.0013,-0.0052,0.0023,0.0011,-0.0006,0.0252,0.002,-0.0205,-0.0097,-0.0049
0.0066,0.0151,-0.0429,-0.041,-0.0607,0.0626,0.014,0.1136,-0.068,0.0631,-0.0169,-0.0596,0.0062,0.0341,0.0096,0.0021,0.011,0.0267,0.0321,0.0079,-0.0271,0.0174,-0.0097,-0.0323,-0.0003,-0.0201,0.0014,-0.0106,0.0102,0.0174,0.0227,0.0386,0.0024,-0.029,0.0234,0.0002,0.0082,0.0088,-0.0103,0.0306,-0.0085,0.0229,-0.0415,-0.0269,0.0233,0.0133,-0.0439,-0.0226,-0.0386,0.0618,0.009,0.0345,0.0514,-0.0831,-0.071,0.0551,0.0535,0.0413,-0.0287,0.0202,-0.0473,0.0454,-0.0091,0.0096,-0.027,0.1579,-0.1712,-0.012,0.0868,-0.1763,0.0768,-0.0631,0.2191,-0.2099,0.0411,-0.1016,0.0291,0.0539,0.0291,0.0038,-0.0473,0.0358,0.0143,-0.0576,-0.0317,-0.0301,-0.0345,0.0157,0.008,0.0412,0.0072,-0.0318,0.0407,0.0411,0.0164,0.0393,-0.0037,0.0068,-0.0819,-0.0252,0.0174,0.0059,0.021,0.0517,-0.033,-0.0053,-0.0008,-0.0368,0.0227,0.0486,0.0186,0.0234,0.0888,-0.0879,0.0048,-0.0563,-0.0138,0.03,0.0338,-0.0553,0.0269,0.0063,0.0281,0.0105,0.0515,0.0335,-0.0449,-0.0367,0.0687,0.0006,0.0052,-0.0088,-0.0331,-0.0217,-0.0005,-0.0184,0.014,0.0026,0.0339,0.0457,0.0488,0.0259,0.06,-0.1218,0.0475,0.0588,-0.0024,0.0127,0.0232,0.0155,0.012,0.0082,0.0432,0.0815,0.0887,0.0426,-0.0308,-0.095,0.1148,-0.161,0.0769,0.049,0.0676,-0.1218,0.0191,-0.0072,-0.0171,0.0013,-0.0547,-0.0345,0.0056,0.0682,0.0689,0.0025,0.0379,-0.1029,0.0305,0.0452,0.0219,-0.0992,-0.0681,-0.0473,-0.0293,0.0147,0.0312,0.0469,-0.0073,-0.0035,-0.0044,-0.0388,0.0124,-0.0026,-0.0178,0.0156,0.0917,0.0668,0.026,0.0756,0.0487,0.0395,0.0073,0.0006,-0.0572,0.0323,0.0292,-0.0384,-0.0614,0.0192,0.0841,0.0377,0.0197,0.0489,0.0151,-0.0924,-0.0667,-0.018,0.0076,0.0134,-0.0189,0.0825,-0.0537,0.0541,0.0671,0.0231,0.0058,-0.1633,0.0903,0.0939,0.0204,-0.0368,-0.0825,0.0225,0.028,0.0163,0.0428,-0.0204,0.0099,-0.0471,-0.0134,0.0251,0.0065,-0.0032,0.0193,-0.0432,0.0917,0.0163,-0.0099,-0.016,-0.0334,-0.0147,-0.0011,0.0199,0.0151,0.0053,0.0462,0.0117,0.0157,0.062,0.0325,0.0703,0.0056,0.0119,-0.0056,-0.0007,-0.002,0.0437,-0.0236,0.0381,-0.0104,-0.0188,-0.0607,-0.0259,-0.0081,0.0106,0.0299,0.0479,-0.0306,-0.0221,-0.0122,-0.005,-0.0101,-0.0863,-0.0797,-0.0386,-0.0066,-0.0038,-0.0096,0.0164,0.0087,-0.0032,-0.0037,-0.0116,-0.0174,0.0315,0.0115,0.0097,-0.0187,-0.0072,0.016,0.0126,-0.004,-0.0201,0.0075,0.0079,-0.0132,0.0492,-0.006,-0.0195,-0.0061,-0.0258,0.0042,-0.0277,-0.0323,0.2004,-0.1923,-0.0234,0.0494,0.0961,-0.0402,0.024,0.1131,0.0962,-0.1145,0.0293,-0.0966,-0.0293,0.0646,0.018,0.1391,-0.0667,-0.0478,0.0356,0.0024,0.0306,0.1131,0.0631,0.0706,-0.0763,-0.0594,-0.04,-0.0448,-0.115,0.0624,0.0239,-0.0367,0.0003,0.0094,-0.0205,0.0344,-0.0174,-0.0396,-0.0189,0.0965,-0.0645,-0.0002,0.011,0.0072,-0.0003,-0.006,-0.0142,0.0072,-0.001,-0.0079,0.0004,0.0001,0.0033,0.0112,-0.0018,-0.0022,0.0001,-0.0148,0.0051,0.0025,-0.0084,0.0028,-0.0055,0.0015,0.0017,-0.008,-0.0002,0.0018,-0.0032,0.0087,-0.0017,-0.0019,-0.0219,0.0093,0.0198,-0.0072,-0.0065
0.0064,0.039,0.0148,0.0104,0.0251,0.011,-0.0194,-0.2174,0.0329,0.0098,0.0013,-0.0021,0.0011,-0.0075,0.0039,0.0028,0.0042,-0.0237,0.0028,-0.0078,-0.0027,-0.0362,-0.0319,0.0342,-0.0025,-0.004,0.0001,0.0073,-0.0083,-0.0346,-0.0057,0.0196,-0.0127,-0.0218,-0.008,0.002,0.0159,0.0081,-0.0377,0.067,-0.016,0.0549,-0.0341,0.013,-0.0415,-0.0477,-0.0024,0.0614,0.0526,-0.016,-0.0959,-0.0457,-0.0512,-0.0258,0.0479,0.0403,-0.0094,0.0142,-0.0613,0.0441,0.0071,0.0452,0.0126,-0.0489,0.0334,0.1023,-0.114,-0.0176,0.004,-0.0046,-0.0147,0.0162,0.1121,-0.1321,0.0436,0.0143,-0.0563,0.0207,-0.0074,-0.0067,0.0289,-0.0879,0.0419,-0.0225,0.0261,0.0416,0.0247,0.0004,0.0241,-0.0432,0.0861,0.0237,-0.0071,0.0253,-0.0501,0.0339,-0.0279,0.0361,0.0303,0.015,-0.0455,0.0052,-0.044,-0.037,0.0285,0.0196,-0.0318,0.0061,0.0185,0.019,0.0235,-0.0126,0.0351,-0.0106,-0.0179,-0.0054,0.0254,0.0284,-0.0674,0.0074,0.0136,-0.0013,-0.0624,-0.0539,0.0694,0.0705,-0.0081,-0.004,0.0326,0.0914,0.1054,0.042,-0.0674,-0.0867,-0.0614,-0.0829,0.0103,0.0355,0.0333,0.0105,0.0047,-0.0416,0.0122,-0.1362,0.0415,0.0271,-0.0771,0.0194,0.0358,0.0168,0.0037,-0.0205,-0.0189,0.0254,0.0461,0.0119,0.0053,-0.0148,0.0461,-0.0335,0.0265,0.0085,0.0659,-0.1362,-0.0874,0.0721,-0.0012,0.0648,-0.0648,-0.065,0.031,0.0375,0.0403,-0.0524,0.0058,-0.0464,-0.0021,0.0658,0.0321,-0.0444,0.075,-0.0167,0.0042,0.0407,0.0056,0.0175,0.0181,0.0872,0.0143,-0.0648,-0.0113,-0.0695,-0.031,0.0234,0.0521,0.0154,0.0243,0.0305,0.0778,-0.0324,0.0016,-0.0455,0.0873,0.0115,0.0146,-0.0277,0.0872,-0.0006,0.0549,0.0154,-0.0182,-0.0426,-0.0244,-0.0756,0.0964,-0.0096,-0.0385,0.0311,0.0391,0.034,-0.0076,0.0609,0.0137,-0.0632,-0.0103,-0.0442,0.0389,-0.0388,0.0458,-0.0687,0.2076,-0.0019,-0.0416,-0.0084,0.0213,-0.0415,-0.0164,0.0062,0.0217,0.0273,-0.002,-0.0789,-0.0895,0.0147,-0.0044,0.0373,-0.0298,0.0241,0.0118,0.0258,0.0008,-0.0083,0.0269,0.0346,-0.0089,-0.0627,-0.015,-0.0018,0.0108,-0.0196,-0.0079,0.0213,-0.0041,-0.0,0.0035,0.0329,0.0308,-0.016,-0.0295,0.0112,0.0355,0.0207,-0.0982,-0.0084,-0.0222,-0.0433,0.1151,-0.0026,-0.0423,0.0102,-0.0149,0.2181,0.1902,0.1376,-0.0019,0.0206,-0.0157,-0.0098,0.0261,0.0027,0.01,0.0385,0.0432,-0.0098,-0.0072,-0.0118,-0.0399,0.0136,-0.0216,-0.0529,-0.0178,0.0105,0.0019,0.0075,0.0427,-0.0951,0.0499,0.0404,-0.0059,-0.0401,0.0005,0.0533,0.009,0.1016,-0.1307,-0.0184,0.0056,-0.0705,0.05,0.1085,-0.2071,-0.1572,0.0657,0.056,-0.0708,-0.0021,-0.0236,0.0342,-0.0866,0.0915,0.001,-0.013,0.0662,0.083,-0.2071,-0.1327,-0.0891,0.035,0.0092,0.0423,0.0394,0.053,-0.0238,-0.0155,0.0239,0.0098,-0.0537,0.0085,0.0165,0.0276,0.0962,-0.01,-0.1141,0.0804,0.0077,-0.0077,-0.001,0.0032,0.0103,0.0207,-0.0075,0.0001,0.0076,-0.0029,-0.0008,0.0051,0.0011,-0.0046,0.004,0.0004,0.0291,-0.0063,-0.0035,0.0169,0.003,0.0148,0.0022,0.004,0.0098,-0.0088,0.0083,0.0068,-0.007,-0.0061,0.0024,-0.0329,-0.0143,0.0012,0.0278,0.0132
0.0063,0.0158,-0.0424,-0.0207,-0.0314,0.0515,0.0404,0.0296,-0.0547,0.0546,0.0179,0.1302,-0.0115,0.0051,-0.0352,0.0246,-0.0102,0.0212,0.0232,-0.0154,-0.0203,-0.0086,0.0004,0.0327,0.0053,0.0278,0.0137,0.0274,-0.0245,0.0114,-0.0238,-0.0143,0.0006,-0.0791,0.0587,-0.0007,0.0109,-0.0249,-0.0041,0.0002,-0.0311,-0.0044,0.0384,0.0506,-0.0008,-0.047,0.0806,-0.0334,-0.1426,0.0281,0.1233,0.0192,0.0601,-0.1041,-0.0728,0.0683,-0.043,-0.0101,0.0476,0.0004,-0.0828,-0.0479,-0.0518,-0.0035,0.0237,-0.0876,-0.0475,0.153,-0.0359,0.0418,-0.0708,0.0115,-0.1285,-0.0093,0.0397,-0.0526,-0.1347,-0.057,-0.0289,0.0701,-0.0681,0.1294,-0.0285,0.0284,-0.0357,-0.0866,0.1717,-0.0753,-0.0067,-0.1208,-0.0485,-0.0346,-0.0227,0.0277,-0.1568,0.0243,-0.0546,0.1743,-0.0497,-0.0631,-0.0811,-0.0858,-0.1135,0.0271,-0.0043,-0.0414,0.0133,0.0315,-0.0192,-0.0602,0.0804,-0.0109,-0.0589,0.0158,0.0246,-0.0526,-0.0194,0.03,-0.0828,0.0296,-0.0619,0.019,-0.0257,-0.0206,0.0124,0.0169,0.0008,0.0069,0.0067,0.0607,0.0462,0.0424,-0.0035,-0.058,-0.0379,-0.0527,-0.03,0.0022,0.0183,0.0117,0.0082,-0.0419,-0.0386,-0.0662,0.1486,-0.081,-0.0585,0.0203,0.0585,0.0863,0.0599,0.0031,-0.0823,-0.0638,-0.0428,-0.0315,0.0112,0.0144,-0.05,0.0137,0.0122,0.2492,-0.0992,-0.0662,-0.0498,0.0488,0.0075,0.0367,-0.0378,-0.0039,-0.026,0.0171,0.0203,-0.0326,-0.1161,-0.0712,-0.0068,-0.0347,0.0339,0.0299,0.0913,0.0023,0.0369,-0.0031,-0.0139,0.0115,0.008,0.0408,0.0209,0.0027,-0.046,-0.033,-0.0349,-0.0117,-0.0458,0.0068,0.0034,-0.0519,-0.0556,0.1195,0.1417,-0.0393,0.1138,-0.024,-0.05,-0.0621,0.1176,0.0387,0.0291,-0.0171,-0.0313,-0.0254,-0.0488,0.066,0.1298,0.0526,-0.0288,-0.0044,0.0831,-0.0016,0.0064,-0.0013,-0.0139,-0.0229,-0.0045,-0.0003,-0.0502,0.0236,-0.0076,0.0081,-0.0422,0.0329,0.0194,0.0096,-0.0515,-0.0242,0.0172,-0.0451,-0.013,0.0331,0.0243,-0.06,-0.0524,0.0025,-0.052,0.0137,0.0068,-0.0488,0.0267,0.0069,-0.0041,0.0034,0.0145,-0.0211,0.0163,0.0069,0.0406,0.0361,0.0434,0.0287,-0.0258,0.0382,-0.0146,0.0317,0.0021,-0.0049,-0.0488,0.0279,-0.0458,0.0619,-0.0794,0.0067,-0.0076,0.0109,0.0113,0.016,0.0047,0.0116,0.0043,0.0225,-0.0137,-0.0442,-0.0366,-0.0485,0.0176,0.053,0.0558,-0.0942,-0.0201,-0.0023,0.0097,0.0049,0.0251,-0.0256,0.0011,-0.0062,-0.0098,-0.0057,0.0198,0.0605,-0.0037,-0.0235,0.0076,0.0482,-0.0483,0.0098,0.0126,-0.0516,0.0026,0.0573,0.0114,-0.0705,0.0276,-0.0895,-0.043,0.1577,-0.011,0.0475,0.0317,-0.0305,0.0173,0.0401,-0.063,-0.0266,-0.1188,0.0171,0.068,0.0914,0.0586,0.0193,-0.0654,0.0886,-0.0708,0.0316,0.0173,-0.0069,0.0588,-0.0732,-0.0819,0.0275,0.0085,-0.0167,-0.0041,0.0056,-0.0196,0.0395,0.0411,0.0008,-0.0478,0.0631,0.0111,-0.0438,-0.0128,0.007,-0.0022,-0.0032,0.0014,0.0013,-0.0035,0.0087,0.0002,-0.0023,0.0056,0.0073,-0.0024,-0.0037,0.005,0.004,0.0019,-0.0017,0.0137,0.0008,0.0004,0.0044,0.0065,0.0076,0.0046,0.0014,0.002,0.0022,0.002,-0.0011,-0.0086,-0.0006,-0.0008,-0.0,-0.0037,-0.0309,0.0016,0.0017
0.0063,0.0244,-0.0238,-0.0179,-0.0231,0.0905,0.033,-0.0777,-0.0169,0.0883,-0.001,0.045,0.0083,0.0219,0.0149,0.0019,-0.0085,0.0205,0.0078,-0.0137,-0.0473,-0.013,-0.0532,-0.0008,0.003,-0.0557,-0.0149,-0.0207,0.019,0.0315,-0.002,0.0047,-0.0029,-0.0365,0.0354,-0.016,-0.0601,0.0324,0.0478,0.0702,-0.0022,0.0451,-0.0214,-0.0423,-0.0094,0.0032,0.0137,0.0299,0.0073,0.0295,-0.0454,0.0453,0.0232,-0.0898,-0.047,0.0631,0.0446,0.0229,-0.1076,0.1067,-0.0266,0.0414,-0.0463,-0.0033,-0.0431,-0.0643,0.0542,0.0366,0.038,0.0592,0.0623,-0.0521,-0.118,0.0832,0.09,0.0008,0.1476,-0.0325,-0.021,0.0513,-0.0393,-0.0238,-0.0227,0.0236,0.0923,-0.0327,0.1074,-0.2397,0.0986,0.1647,-0.0706,0.0233,0.0221,0.0577,0.1099,0.0813,-0.2179,0.1002,0.0065,-0.0218,0.0479,-0.035,0.1705,-0.0872,0.0513,0.0489,-0.001,0.0254,-0.0029,-0.0276,0.0377,-0.0425,-0.0537,0.0586,0.0136,-0.0586,0.0049,0.0427,0.0591,0.1306,-0.0167,-0.0027,-0.0937,-0.0751,0.0428,0.0599,0.0328,0.0297,-0.0046,0.0089,0.0015,0.0023,0.0185,-0.0149,0.0153,-0.0032,-0.0168,-0.0248,0.0191,0.0046,0.0253,0.0063,-0.0169,-0.0609,-0.0258,-0.0276,0.0345,-0.001,0.0314,0.0385,0.0189,-0.0277,-0.0934,-0.0803,-0.0409,-0.0172,0.0357,0.0588,-0.0197,0.1536,-0.004,-0.1224,-0.0546,-0.0609,0.0811,0.024,0.0196,0.024,-0.0375,0.0084,-0.0376,0.0339,0.0345,0.0027,0.0045,0.1005,-0.0089,-0.0095,0.0317,-0.1653,-0.1709,0.04,0.0193,-0.025,0.0312,0.0158,0.0196,0.0163,-0.0039,0.0175,-0.0327,-0.0035,-0.0016,-0.024,0.0075,-0.0048,0.013,-0.0382,-0.0488,-0.0744,-0.0999,-0.0382,-0.1215,0.0007,0.0158,0.0644,-0.1546,-0.0305,0.1298,0.0226,-0.0049,-0.0108,-0.0413,-0.0911,-0.1515,0.0185,-0.0497,0.063,-0.0331,-0.0019,0.0472,0.029,-0.0437,-0.0891,-0.0169,0.1244,0.0571,0.0356,0.0519,-0.0648,-0.067,0.0127,0.0065,0.005,0.0201,-0.0278,0.0094,-0.0468,0.0042,0.0407,-0.0015,0.0352,0.0806,-0.0297,0.0325,0.0407,-0.0337,-0.0142,0.0067,0.0338,-0.0156,-0.0016,0.0266,0.0474,0.0533,-0.0627,0.0023,0.0853,0.0435,0.0454,-0.0269,0.0245,-0.0473,-0.0514,0.0007,-0.0055,0.0027,-0.0018,-0.0365,0.0551,0.0303,0.001,-0.0527,-0.0011,0.0098,0.0145,0.0378,-0.0139,-0.0104,0.0075,-0.0381,-0.066,-0.0481,-0.0435,-0.0299,-0.0191,0.036,0.0064,-0.0285,-0.0002,-0.0078,0.0256,0.0038,0.0693,0.0098,-0.006,-0.0669,0.0115,-0.0207,-0.0169,-0.0154,0.0042,0.0028,0.0049,0.0083,-0.0223,0.0187,0.0127,0.0013,-0.0373,-0.0863,0.105,-0.0495,-0.0562,0.0655,0.0313,0.0309,-0.0177,0.0429,0.0273,-0.034,-0.0787,-0.0047,0.0281,-0.0848,-0.0047,0.0634,-0.0067,-0.0051,0.001,0.0036,0.0527,0.0021,0.0362,-0.034,-0.0596,-0.0506,-0.0236,-0.0121,0.0009,0.0207,-0.0563,0.0424,0.0217,-0.0373,0.0125,0.0283,-0.0205,0.0111,0.0058,-0.004,-0.0073,-0.0074,-0.0169,0.0369,0.0081,0.0069,0.0038,0.0019,-0.0004,0.0061,-0.0011,0.0008,-0.0031,-0.0008,0.0124,0.0169,-0.0069,0.0072,0.0075,0.0055,0.0009,-0.0042,0.0023,-0.0003,0.0074,0.0033,0.0017,0.0024,-0.0167,-0.0053,0.0081,-0.0013,-0.0028,0.0049,-0.0642,-0.0044,0.0631,0.0035,0.0006
0.006,0.0221,-0.0245,0.0022,-0.0791,0.0768,0.0773,-0.021,-0.0063,0.0784,0.0488,0.0782,0.0313,0.0266,-0.0263,0.0144,0.004,0.045,0.0476,0.008,-0.0171,-0.0436,-0.03,0.0412,-0.0002,-0.0688,-0.0578,-0.0441,0.0397,0.0043,-0.0152,-0.0274,-0.004,-0.0451,0.0293,-0.0055,-0.0018,-0.0069,0.0175,-0.1232,0.0268,-0.1268,0.0471,0.0276,-0.0009,-0.0098,0.0581,0.0193,-0.0184,0.0028,-0.0031,0.0083,0.0001,0.0008,-0.0591,0.0326,-0.0181,-0.0071,-0.0113,-0.0196,0.0722,0.031,-0.0296,0.0105,-0.0351,0.0787,0.0675,-0.0651,-0.0732,-0.0061,-0.0529,-0.0258,0.0797,0.0605,-0.0438,0.0426,0.0348,0.0249,0.048,-0.0846,0.0563,-0.0011,-0.0503,-0.0359,-0.0054,0.0512,-0.1241,0.0582,0.0083,0.0581,0.0611,0.0212,0.0022,-0.0516,0.0693,-0.0394,0.0598,-0.1613,0.0342,0.0519,0.052,0.022,0.0532,0.0308,-0.1029,0.0594,0.0889,-0.1144,-0.0083,0.0243,0.0267,-0.0967,0.0323,0.0409,-0.0333,0.0612,0.0299,0.0202,0.0297,0.0126,-0.0271,0.0334,-0.0732,-0.0563,0.0621,0.0616,0.0036,0.0137,-0.0146,-0.0252,-0.0454,-0.0016,0.0267,0.014,-0.0102,0.0186,-0.0083,-0.0123,-0.0135,0.0139,0.0233,0.0065,0.0099,-0.0571,0.0252,0.044,0.0087,0.0441,0.0438,0.0081,-0.0417,-0.087,-0.1051,-0.0136,0.04,0.0623,0.0337,0.0371,-0.0117,-0.011,-0.041,0.0353,0.0832,-0.0571,0.0454,-0.0499,-0.0203,-0.0503,0.0133,0.0191,-0.0131,0.0079,0.0073,0.0191,-0.0845,-0.0342,-0.0236,0.0666,0.0173,-0.0213,0.0067,0.0172,0.003,-0.0105,-0.0109,0.0074,-0.0295,-0.0348,0.0035,0.0172,-0.0056,0.0089,0.0111,-0.0133,-0.0256,-0.0444,-0.013,-0.0254,0.071,0.0212,0.0125,-0.0031,0.0033,0.0305,0.0444,0.0423,0.0277,-0.0169,-0.0297,-0.0403,-0.0067,-0.0483,-0.0071,-0.0177,0.0163,-0.0279,-0.0278,0.0331,-0.0185,-0.0079,0.0245,0.0478,-0.0159,-0.078,-0.0162,-0.0173,-0.083,0.0991,-0.1041,0.1194,0.0397,-0.0253,-0.0128,0.0006,-0.0586,-0.0277,-0.0379,0.0563,0.0326,0.0256,0.0333,0.0102,0.0428,-0.0393,-0.0709,0.0335,0.0026,-0.1138,-0.0245,0.0166,0.0057,0.0442,0.0128,-0.0106,-0.0012,0.0345,0.1293,0.0451,0.0668,0.0481,0.0026,0.067,-0.0032,0.0457,0.0014,-0.0237,0.0176,-0.0086,-0.0902,-0.0177,-0.1094,0.0017,0.0215,0.0133,0.0119,0.024,0.001,0.0083,0.0291,0.0235,-0.0044,0.0445,0.0393,0.0212,-0.0058,0.0113,0.0147,-0.0378,0.0423,0.0014,0.0707,-0.0008,-0.0285,0.0178,-0.0031,-0.0214,-0.0911,0.0206,0.0098,0.0066,-0.017,-0.0022,-0.0122,-0.01,-0.0348,-0.0409,0.0338,0.0129,0.0183,-0.0035,0.0564,-0.0906,-0.0475,0.0659,0.052,-0.0694,-0.0646,0.057,0.1378,-0.3225,-0.1125,0.0173,0.1021,-0.018,-0.0708,0.0971,0.0166,0.0311,0.115,0.0242,0.0428,0.091,-0.2532,-0.1868,-0.1125,-0.0258,0.0456,-0.0194,0.0095,0.0609,0.1105,-0.0759,0.0275,0.0128,-0.0707,0.084,-0.0113,0.0097,-0.0004,0.0727,0.0151,-0.0407,-0.0502,-0.0213,0.0658,0.0103,-0.0017,0.0041,0.0086,0.0036,0.0007,0.0016,-0.0008,0.0192,0.0034,0.0097,0.0044,-0.0014,-0.0011,0.0037,0.0056,-0.0012,-0.004,-0.0002,-0.0024,-0.0043,0.0013,-0.0132,-0.0013,0.0025,-0.0178,-0.0011,-0.0109,-0.0153,0.0004,-0.075,-0.0069,0.0408,-0.018,-0.0027
0.0058,-0.018,0.0198,0.0515,-0.0263,-0.0291,-0.0423,-0.0247,0.018,-0.03,-0.0345,-0.0643,-0.0178,0.0103,0.0707,0.0143,0.0303,0.0128,0.0114,0.0045,0.0524,-0.0013,-0.0429,-0.0221,-0.0037,-0.1345,-0.0745,-0.0986,0.0886,-0.0311,0.0151,0.0439,0.0561,0.042,-0.054,0.0554,0.0684,-0.0312,-0.0864,0.0988,-0.0201,0.0936,-0.0694,-0.0362,0.014,0.0359,-0.0655,-0.0143,0.01,-0.0189,0.0108,-0.0007,0.0223,-0.0312,-0.0033,-0.0012,0.0038,-0.0018,0.0128,0.0108,-0.0468,-0.0094,-0.0011,0.0092,0.0365,-0.051,-0.0573,0.0231,0.0596,0.0315,0.0467,0.0355,-0.0478,-0.057,0.0063,-0.0238,-0.013,-0.004,-0.0297,0.0534,-0.0395,0.0015,0.0478,0.014,-0.0206,-0.0244,0.0621,-0.0125,-0.0311,-0.0364,0.0019,-0.0158,-0.0106,0.0232,-0.0487,0.0092,-0.0172,0.093,-0.0156,-0.0296,-0.0346,-0.0235,-0.034,-0.0061,0.0446,-0.0357,-0.0624,0.0714,-0.0002,-0.0032,-0.0083,0.0591,-0.0402,-0.0131,0.0513,-0.0739,-0.0522,-0.0317,-0.0208,-0.0391,-0.0002,-0.0437,0.045,0.0336,-0.0424,-0.0395,0.0034,-0.0114,0.0038,0.0329,0.0448,0.0113,-0.0356,-0.02,0.015,-0.01,0.0115,0.0065,0.0095,-0.0141,-0.0177,-0.0017,-0.0018,0.045,-0.0395,-0.0314,0.0231,-0.0347,-0.0192,0.0052,0.0321,0.0559,0.0554,-0.01,-0.0429,-0.0524,-0.019,-0.0094,0.0224,-0.0011,0.0368,-0.0426,-0.0605,0.045,-0.0165,0.0442,0.0142,0.0488,-0.0129,-0.0187,0.0133,-0.0063,-0.0055,-0.0226,0.058,0.0254,0.0404,-0.0582,-0.0122,0.0375,0.0112,-0.0097,-0.0044,0.006,0.0125,-0.0095,0.028,0.0404,0.0018,-0.0253,0.01,-0.0059,-0.0045,0.0144,0.0281,0.0477,0.0196,0.0387,-0.0517,-0.0243,-0.0098,-0.0026,-0.0094,-0.0048,-0.0223,-0.0451,-0.0047,0.0306,0.0076,0.0407,0.0154,0.044,0.0057,0.0145,-0.0086,0.0148,0.0182,-0.0048,-0.0192,0.0096,-0.0117,-0.0368,0.0019,0.0474,0.0159,0.0142,0.1181,0.0444,0.0904,-0.0931,0.0393,0.0413,0.0208,0.0199,0.0741,0.0205,0.055,-0.0746,-0.0543,-0.0355,-0.0424,0.0223,-0.0129,-0.0022,0.1191,0.0131,0.0397,0.1052,-0.0624,-0.0623,0.0446,-0.0158,0.0016,-0.0443,-0.0123,0.0662,-0.1023,-0.0341,-0.075,-0.011,0.0053,-0.1097,0.0113,0.017,-0.0052,0.0415,0.0403,-0.0115,-0.0635,0.0271,-0.0247,-0.0309,0.0042,0.0187,0.0235,0.0306,0.0174,-0.0317,-0.0379,-0.0062,0.0543,0.0381,0.0223,0.0194,-0.0312,-0.047,-0.0019,0.0664,-0.0282,0.0015,0.0099,-0.0196,-0.052,0.1045,-0.009,0.0263,-0.0962,0.0083,-0.0059,-0.003,0.0151,0.0367,-0.0137,-0.004,-0.0439,-0.0112,-0.0026,-0.0014,0.0172,0.0325,0.0481,-0.1095,0.042,-0.0511,-0.0452,0.0339,0.0555,0.076,0.1111,-0.3848,-0.0764,-0.0441,0.1924,0.0425,-0.0064,-0.0522,0.0112,-0.0324,0.1375,0.0457,0.0382,0.0308,-0.2647,-0.2617,-0.0764,-0.016,-0.0437,0.0889,0.0793,0.0332,0.1189,-0.0463,0.0042,-0.0019,0.0585,-0.0261,-0.066,0.0072,0.0249,-0.039,-0.0509,0.0693,0.0548,0.0066,-0.124,0.0062,0.0029,0.006,0.0079,-0.0194,0.0004,-0.0061,-0.0067,-0.0205,0.0047,0.0071,0.0178,0.0004,-0.0034,0.0034,-0.0337,0.0044,-0.0038,-0.0135,-0.0052,-0.014,-0.0047,-0.0112,-0.009,0.019,-0.0322,0.0023,0.0114,-0.0115,0.0016,-0.0887,0.0014,0.1329,-0.0313,-0.0084
0.0055,0.0397,-0.0209,0.0583,0.0806,0.0643,0.0197,0.0377,-0.0107,0.0642,-0.017,0.0669,0.02,-0.0511,0.0393,0.0159,0.0113,-0.0418,-0.0122,-0.018,0.1106,-0.0094,0.0414,-0.011,0.0024,0.0951,0.0276,0.0591,-0.0574,-0.0134,0.0731,0.0133,0.0452,0.0189,-0.0396,0.0648,0.0772,-0.0571,-0.1212,0.0539,-0.0264,0.0458,-0.0119,0.0209,-0.0061,0.0038,0.0262,-0.0001,-0.0268,-0.0188,0.0404,0.0458,0.038,-0.0579,-0.0678,0.0394,0.0173,-0.005,-0.017,0.0031,0.0422,-0.0003,-0.0328,0.0212,-0.0067,0.0023,-0.0058,-0.0101,0.031,0.0368,0.0218,-0.0176,-0.0117,0.0005,-0.0408,0.0154,0.1044,-0.0954,0.0377,-0.0412,0.0073,0.0258,-0.1258,-0.0313,0.0544,0.0258,-0.1067,-0.016,-0.0349,0.1235,0.0601,0.0074,0.0349,-0.0155,0.0995,-0.0437,0.0036,-0.1239,0.0224,0.0303,0.0563,-0.004,0.1199,-0.0586,-0.0273,0.0899,0.1282,-0.0405,-0.0538,-0.0987,0.0459,-0.0316,-0.0292,0.0273,0.01,-0.0147,-0.0037,0.0165,0.0183,0.0163,-0.0468,-0.0026,-0.0496,-0.0375,0.0219,0.0302,0.0148,0.013,0.0183,0.0016,-0.0164,0.0116,0.0027,-0.0033,0.0026,-0.0288,-0.0065,0.0228,0.0117,0.001,0.0114,0.0027,0.0112,-0.0788,0.0504,-0.0062,0.0243,0.003,0.0361,0.0477,0.018,-0.0244,-0.0683,-0.0486,-0.0151,-0.0108,0.0166,0.0271,0.0224,0.0061,0.0194,0.0536,-0.025,-0.0788,0.053,-0.0129,-0.0178,-0.0053,-0.0038,-0.0054,0.0055,0.0103,0.0109,0.0005,-0.0632,-0.0196,0.014,-0.0143,0.0289,-0.0694,-0.0784,0.0201,0.0044,0.0131,0.0066,0.0034,-0.0178,-0.0006,0.0095,-0.0005,-0.006,-0.0088,-0.0227,0.0114,0.0109,0.0166,0.0002,-0.0068,-0.0227,0.0347,0.0115,-0.0007,-0.0508,0.0194,0.0071,-0.0033,-0.0536,0.0279,0.0189,0.0129,0.0053,0.0147,-0.0044,-0.0177,-0.0579,0.0357,-0.0042,0.0161,-0.0115,0.0323,0.0269,0.0068,-0.0355,-0.0528,0.003,0.0001,0.0745,-0.1133,0.0326,-0.0447,0.0507,0.0163,0.0135,0.0497,0.0004,-0.0456,0.0081,-0.0139,-0.0019,0.0192,0.0002,0.0246,0.0525,0.0732,0.087,0.06,0.086,-0.0854,-0.0518,-0.103,0.0846,-0.0223,-0.0274,-0.0529,-0.0665,0.1236,-0.0987,-0.1376,-0.1518,-0.119,0.0537,-0.1284,0.0645,0.0225,0.0024,0.0116,-0.0113,-0.032,0.001,0.0331,-0.0256,0.0151,0.0341,-0.0319,-0.036,-0.0361,0.037,-0.0843,-0.006,-0.015,0.1309,0.0558,0.0374,0.0213,-0.0223,-0.0228,0.0404,-0.0166,0.0158,-0.0008,0.0118,-0.0243,0.0065,-0.1019,0.0039,0.0394,0.1339,0.0019,0.0224,-0.0028,0.0387,-0.0556,0.0106,0.0485,-0.0345,-0.0004,-0.0077,-0.0196,0.0211,0.0692,0.195,-0.2127,-0.0166,0.0032,-0.0067,-0.011,0.0189,0.0446,-0.0399,0.0314,0.0224,0.0354,-0.0257,0.0337,-0.0671,-0.0395,0.0204,0.0332,-0.0092,0.1052,-0.1125,-0.022,0.0017,0.043,0.0224,0.0174,0.0312,0.0022,-0.0417,-0.0062,0.0023,0.1891,-0.1329,-0.0845,0.1317,0.0141,-0.0191,0.0535,-0.1333,-0.0094,-0.0095,0.0296,0.0031,0.1506,-0.1963,-0.0046,0.0003,-0.0057,0.0113,0.0054,-0.0034,0.0002,0.0018,0.0101,0.0131,-0.0154,-0.0151,0.0171,-0.0049,-0.003,0.0063,0.0028,0.001,0.0028,0.0059,-0.0033,0.0065,-0.0011,0.0046,0.0382,0.0232,-0.0045,0.0226,0.0194,-0.0053,0.1125,0.0246,-0.1123,0.0001,0.0007
0.0054,0.0291,0.0465,0.0058,0.0013,0.1048,0.0562,-0.048,0.0708,0.1049,-0.0093,0.0689,0.0234,-0.0062,0.012,0.0125,0.0004,-0.023,-0.0221,-0.032,-0.0113,0.0493,-0.0089,-0.063,-0.0034,-0.1532,-0.0515,-0.1118,0.1067,-0.0192,0.0198,0.0081,-0.0046,-0.0451,0.0166,-0.0091,-0.0011,0.0066,0.0097,0.055,-0.0093,0.041,-0.0057,-0.0569,0.0061,0.0447,0.0312,-0.0072,-0.0689,-0.012,0.0722,0.0125,0.0166,-0.0534,-0.0615,0.0616,-0.0213,-0.0223,0.0609,-0.0487,0.0095,0.0117,-0.0562,-0.0053,0.0472,-0.0628,-0.0014,-0.0049,0.0086,0.0417,-0.0281,0.0573,-0.0928,0.0154,-0.0914,-0.049,-0.0212,0.1577,0.0111,-0.0132,-0.0051,0.0639,-0.0038,-0.0378,-0.0713,-0.0043,-0.1507,0.1392,-0.1034,-0.013,0.0689,-0.0218,-0.021,-0.0431,0.0191,-0.0827,0.1402,-0.1339,-0.0492,-0.0011,0.0231,0.025,-0.0092,0.1289,-0.2189,0.0634,0.0939,-0.2119,-0.0095,0.1623,0.096,-0.0048,-0.055,0.0082,0.0653,-0.0446,-0.0683,-0.0426,-0.0003,-0.0254,-0.0425,-0.0509,0.0321,0.0207,0.02,0.006,-0.0375,-0.0223,-0.0264,0.015,0.001,0.0237,-0.0314,-0.0126,0.0061,-0.0024,0.0029,0.0156,0.0035,-0.0,0.0033,0.0026,-0.0205,-0.0063,0.0341,-0.0275,0.0601,0.063,0.0893,0.0819,0.045,0.0059,-0.0616,-0.0526,-0.0383,-0.0367,-0.0126,0.0145,-0.0616,0.0201,0.0168,0.0688,-0.049,-0.0063,0.0313,0.0078,-0.0084,0.0161,-0.0014,-0.0071,0.0069,-0.0001,0.0005,-0.008,-0.0601,-0.0223,0.0563,-0.0316,-0.0055,0.0372,-0.0216,-0.0349,-0.007,-0.0017,-0.0016,-0.0045,-0.0035,0.0217,0.0036,-0.0244,0.0103,0.0041,0.001,0.0077,-0.0588,0.0378,0.0106,-0.0407,-0.0465,0.0391,0.0358,0.0175,-0.0307,0.0222,-0.0096,-0.0304,-0.0215,0.0647,-0.0372,0.0168,0.0191,0.0033,0.0039,0.0667,-0.0282,0.0241,0.0064,0.0132,-0.0243,-0.0595,-0.0339,0.0055,0.0311,0.0313,0.0154,0.0318,0.0984,-0.0025,0.0537,-0.0439,0.0144,0.0191,-0.0048,-0.0375,-0.0105,-0.0307,0.062,-0.0563,-0.0679,-0.0398,-0.0477,0.06,0.0328,-0.0044,0.0861,0.069,0.0026,-0.0789,0.0027,0.0342,0.0017,-0.0012,0.0155,0.0345,0.0086,-0.031,-0.0578,0.0058,-0.0237,-0.015,0.0334,-0.0056,0.014,0.0508,0.0029,0.013,-0.0184,0.0005,0.0969,0.0238,0.0838,-0.0281,-0.0185,0.0192,0.0392,0.0407,-0.0085,-0.0151,0.0095,-0.0161,-0.0137,0.022,0.0191,0.0033,-0.065,-0.0381,0.0794,-0.0117,-0.0044,-0.0005,-0.0392,-0.014,-0.0947,0.1687,-0.0084,-0.0779,0.0234,-0.0037,0.0075,0.0781,-0.0249,0.0028,0.0077,0.0012,0.0139,-0.0287,-0.0267,0.0224,-0.0295,-0.0779,-0.0393,0.1024,0.062,-0.0765,0.0188,0.0075,0.0147,-0.068,-0.0597,0.1736,-0.1253,-0.0181,0.0279,0.0131,-0.0242,-0.0273,0.0594,-0.0389,-0.066,-0.0372,-0.0232,-0.013,0.1341,0.1026,-0.1253,-0.0078,-0.0169,0.0389,0.0251,0.0104,-0.0163,-0.099,0.1153,0.0288,-0.0179,-0.035,-0.0138,0.0098,0.0419,-0.0762,0.0102,0.0307,0.0294,-0.0208,0.0153,0.0067,0.0089,0.0063,-0.0059,-0.0397,0.0055,-0.0013,-0.0151,-0.0336,-0.0209,0.0129,0.021,-0.0307,0.0066,0.0089,-0.0477,0.0081,-0.0048,-0.0275,0.0021,-0.0253,-0.0023,-0.0178,-0.0182,-0.0711,-0.012,0.0109,-0.0311,0.0033,0.008,0.0107,-0.0067,0.1856,-0.0593,-0.0198
0.0054,-0.0055,-0.0316,0.015,0.0063,0.0254,0.0224,-0.0304,-0.0256,0.025,0.0125,0.0302,-0.0116,-0.0115,0.0293,-0.001,-0.007,-0.0,-0.0139,-0.0028,0.0203,0.0446,-0.0161,-0.0417,-0.0079,-0.0556,-0.0205,-0.0398,0.0382,0.0062,0.0482,0.0087,0.0041,-0.0263,0.0133,0.0031,0.0004,-0.0013,-0.007,-0.055,0.0133,-0.0573,-0.0018,-0.0239,0.0293,-0.0179,0.0061,0.0264,0.021,0.016,-0.0491,0.0139,0.0161,-0.0376,-0.0358,0.0225,0.0302,-0.0216,0.0358,-0.0189,0.0179,0.0204,-0.0013,0.0153,0.0097,0.0336,0.0364,0.0087,-0.0865,0.0134,0.0324,0.0088,0.0404,0.045,-0.0134,0.0332,-0.0124,-0.0144,-0.0016,-0.0094,0.0252,-0.0359,0.0237,-0.0314,0.0134,0.0297,-0.0105,0.0859,0.0075,-0.0169,0.057,0.0078,0.0267,0.0012,-0.0151,-0.0144,0.0751,-0.0338,0.029,0.0294,-0.018,0.0108,-0.0111,-0.028,0.0476,-0.0152,-0.0415,0.0486,0.0133,-0.0114,0.0085,-0.0425,-0.0025,0.0268,-0.0042,-0.0212,0.0007,0.0244,-0.0044,0.0145,-0.0191,0.0234,-0.0162,-0.0113,-0.0031,0.0022,0.011,0.009,0.0156,0.004,0.0094,-0.0007,-0.0037,-0.0035,-0.0019,0.0265,0.0057,-0.0273,-0.004,0.0029,0.0031,-0.0029,-0.0199,-0.0227,0.0395,-0.0026,-0.0127,-0.0084,0.0083,0.0102,-0.0042,-0.0345,-0.0623,-0.0287,0.0003,0.0258,0.0292,0.022,-0.0346,-0.0072,0.0035,0.0744,0.0023,-0.0227,0.008,0.0154,0.0057,0.0125,-0.0148,0.0022,-0.0135,0.0114,0.0112,-0.0032,-0.0257,-0.0097,0.0025,0.0148,0.0205,0.009,0.0264,0.0078,-0.0043,-0.0214,0.0016,0.0054,0.0074,0.0028,-0.0066,-0.0059,0.0037,0.0174,0.0182,-0.0076,-0.0292,-0.0071,0.0085,-0.0269,0.0043,0.0504,0.0368,-0.0188,0.014,0.0146,0.0091,0.0135,0.0285,0.0138,-0.0008,-0.017,-0.0004,-0.0358,0.0062,-0.0032,0.0235,-0.0225,-0.0058,0.0086,-0.0099,-0.0053,0.0178,-0.0068,-0.021,-0.0193,-0.0034,-0.0151,-0.0011,-0.0024,-0.0376,0.0501,0.0591,0.0074,0.0119,0.0135,-0.0011,0.005,-0.0076,-0.0174,0.0052,0.0278,0.0256,-0.0134,0.0068,0.0069,-0.0279,0.0157,-0.0084,0.0587,0.0201,0.0026,0.0041,-0.0051,-0.0047,-0.0077,-0.0134,-0.0239,-0.045,-0.0348,-0.0288,-0.0211,-0.0004,-0.027,0.0072,0.0011,-0.0015,0.0125,0.0444,-0.0136,0.0096,0.0274,0.0275,-0.0384,-0.0607,0.0039,0.0253,0.0422,-0.028,-0.0523,0.0048,-0.0152,0.0122,0.0636,0.0727,0.0457,-0.0042,0.0086,0.0123,-0.0108,-0.012,0.0011,-0.076,0.0014,-0.0237,0.1005,0.0057,0.0139,0.0217,0.0074,-0.0491,-0.0358,-0.0118,0.0116,0.0046,0.0137,-0.0093,0.0139,-0.0047,0.0141,0.0276,-0.0389,-0.0261,0.0582,-0.0099,0.0229,0.0313,-0.0015,-0.0756,0.0759,-0.0917,-0.005,0.4568,-0.3816,0.0997,0.0108,-0.0713,0.0249,0.0583,-0.012,0.0632,-0.062,-0.0789,0.024,-0.0214,0.0155,0.4568,-0.2652,-0.2667,0.0174,0.0347,0.0337,0.0833,-0.0094,0.0127,0.0042,0.0303,-0.0531,0.0152,-0.0196,0.0138,-0.0075,-0.0127,0.0167,0.0024,0.0068,-0.0209,0.0026,0.0062,0.0017,-0.0006,-0.0167,-0.0047,-0.0025,-0.0027,-0.0389,0.0021,0.0079,0.0185,-0.0056,0.0038,0.0065,-0.0302,0.0042,-0.0044,-0.0092,0.0072,-0.0103,0.0055,0.0003,-0.0068,-0.018,0.0063,0.0091,0.0065,0.0041,0.0046,0.0064,0.0109,0.0922,-0.029,-0.0065
